SVM-light Version V6.02
0 # kernel type
3 # kernel parameter -d 
1 # kernel parameter -g 
1 # kernel parameter -s 
1 # kernel parameter -r 
empty# kernel parameter -u 
13 # highest feature index 
1212 # number of training documents 
198 # number of support vectors plus 1 
1.0002081 # threshold b, each following line is a SV (starting with alpha*y)
-0.20669955361793110326651401464915 1:0 2:0 3:0 4:0 5:0 6:0 7:1 8:1 9:0 10:0 11:0 12:0 13:0 #
-0.20669955361793110326651401464915 1:0 2:0 3:0 4:0 5:1 6:1 7:1 8:1 9:0 10:0 11:0 12:1 13:0 #
-0.020761580236622084738584703700326 1:0 2:0 3:0 4:0 5:1 6:1 7:1 8:1 9:0 10:0 11:0 12:1 13:0 #
0.12222433925225484330212566419505 1:0 2:0 3:1 4:0 5:0 6:0 7:1 8:1 9:0 10:1 11:1 12:1 13:0 #
0.20669955361793110326651401464915 1:1 2:0 3:0 4:0 5:1 6:0 7:1 8:1 9:0 10:0 11:0 12:0 13:0 #
0.20669955361793110326651401464915 1:1 2:0 3:0 4:0 5:0 6:0 7:1 8:1 9:0 10:0 11:0 12:0 13:0 #
0.20669955361793110326651401464915 1:0 2:0 3:0 4:0 5:1 6:1 7:1 8:1 9:0 10:1 11:1 12:0 13:0 #
-0.20669955361793110326651401464915 1:1 2:1 3:0 4:0 5:0 6:0 7:1 8:1 9:0 10:0 11:1 12:1 13:0 #
-0.20669955361793110326651401464915 1:1 2:0 3:1 4:0 5:1 6:1 7:1 8:1 9:0 10:1 11:1 12:1 13:0 #
-0.20669955361793110326651401464915 1:1 2:0 3:0 4:0 5:0 6:0 7:1 8:1 9:0 10:1 11:0 12:0 13:0 #
-0.20669955361793110326651401464915 1:0 2:1 3:0 4:1 5:0 6:0 7:1 8:1 9:0 10:1 11:0 12:0 13:0 #
0.20669955361793110326651401464915 1:0 2:0 3:0 4:0 5:1 6:1 7:1 8:1 9:0 10:0 11:0 12:0 13:0 #
0.20669955361793110326651401464915 1:0 2:0 3:0 4:0 5:1 6:1 7:1 8:1 9:0 10:0 11:0 12:1 13:0 #
-0.20669955361793110326651401464915 1:0 2:1 3:0 4:0 5:1 6:1 7:1 8:1 9:0 10:0 11:0 12:0 13:0 #
-0.20669955361793110326651401464915 1:1 2:1 3:0 4:0 5:1 6:1 7:1 8:1 9:0 10:0 11:0 12:1 13:0 #
-0.20669955361793110326651401464915 1:1 2:0 3:0 4:0 5:1 6:1 7:1 8:1 9:0 10:0 11:0 12:0 13:0 #
0.20669955361793110326651401464915 1:0 2:0 3:0 4:0 5:0 6:0 7:1 8:1 9:0 10:1 11:1 12:1 13:0 #
0.20669955361793110326651401464915 1:1 2:0 3:0 4:0 5:1 6:1 7:1 8:1 9:0 10:0 11:1 12:1 13:0 #
0.20669955361793110326651401464915 1:0 2:0 3:0 4:0 5:0 6:0 7:1 8:1 9:0 10:0 11:0 12:1 13:0 #
0.20669955361793110326651401464915 1:0 2:0 3:0 4:0 5:0 6:0 7:1 8:1 9:0 10:0 11:1 12:1 13:0 #
-0.20669955361793110326651401464915 1:0 2:0 3:0 4:0 5:0 6:0 7:0 8:0 9:0 10:0 11:1 12:1 13:0 #
-0.20669955361793110326651401464915 1:0 2:0 3:0 4:0 5:0 6:0 7:1 8:1 9:0 10:0 11:1 12:1 13:0 #
0.20669955361793110326651401464915 1:1 2:0 3:0 4:0 5:1 6:0 7:1 8:1 9:0 10:0 11:0 12:0 13:0 #
-0.20669955361793110326651401464915 1:1 2:0 3:1 4:0 5:0 6:0 7:1 8:1 9:0 10:1 11:0 12:1 13:0 #
-0.20669955361793110326651401464915 1:0 2:0 3:0 4:0 5:0 6:0 7:0 8:0 9:0 10:0 11:1 12:1 13:0 #
0.20669955361793110326651401464915 1:1 2:0 3:0 4:0 5:1 6:1 7:1 8:1 9:0 10:0 11:0 12:0 13:0 #
-0.20669955361793110326651401464915 1:1 2:0 3:0 4:0 5:1 6:0 7:1 8:1 9:0 10:0 11:1 12:0 13:0 #
-0.20669955361793110326651401464915 1:0 2:1 3:0 4:0 5:1 6:0 7:1 8:1 9:0 10:0 11:0 12:1 13:0 #
-0.20669955361793110326651401464915 1:0 2:1 3:0 4:0 5:1 6:1 7:1 8:1 9:0 10:0 11:0 12:0 13:0 #
0.20669955361793110326651401464915 1:0 2:0 3:0 4:0 5:0 6:1 7:0 8:0 9:0 10:0 11:0 12:0 13:0 #
-0.20663238026390784440877723682206 1:0 2:0 3:0 4:0 5:1 6:0 7:1 8:1 9:0 10:0 11:1 12:1 13:0 #
0.20669955361793110326651401464915 1:0 2:0 3:0 4:0 5:0 6:1 7:1 8:1 9:0 10:0 11:0 12:0 13:0 #
-0.20669955361793110326651401464915 1:0 2:0 3:0 4:0 5:0 6:1 7:0 8:0 9:0 10:0 11:0 12:0 13:0 #
-0.19507979382453449757051089363813 1:0 2:0 3:0 4:0 5:1 6:1 7:0 8:0 9:0 10:0 11:0 12:0 13:0 #
0.20669955361793110326651401464915 1:1 2:0 3:0 4:0 5:0 6:0 7:1 8:1 9:0 10:0 11:0 12:0 13:0 #
0.20669955361793110326651401464915 1:1 2:0 3:0 4:0 5:1 6:0 7:1 8:1 9:0 10:0 11:1 12:1 13:0 #
-0.20669955361793110326651401464915 1:1 2:0 3:0 4:0 5:0 6:0 7:1 8:1 9:0 10:0 11:0 12:1 13:0 #
-0.20669955361793110326651401464915 1:1 2:0 3:0 4:0 5:1 6:0 7:1 8:1 9:0 10:0 11:1 12:1 13:0 #
0.20669955361793110326651401464915 1:0 2:1 3:0 4:0 5:0 6:1 7:0 8:0 9:0 10:0 11:0 12:0 13:0 #
0.20669955361793110326651401464915 1:0 2:0 3:0 4:0 5:1 6:1 7:1 8:1 9:0 10:0 11:0 12:0 13:0 #
-0.20669955361793110326651401464915 1:0 2:0 3:0 4:0 5:1 6:1 7:0 8:0 9:0 10:0 11:1 12:0 13:0 #
-0.20669955361793110326651401464915 1:0 2:0 3:0 4:0 5:0 6:1 7:1 8:1 9:0 10:0 11:0 12:0 13:0 #
0.20669955361793110326651401464915 1:1 2:0 3:0 4:0 5:0 6:0 7:1 8:1 9:0 10:0 11:1 12:0 13:0 #
0.20669955361793110326651401464915 1:1 2:0 3:0 4:0 5:1 6:1 7:1 8:1 9:0 10:0 11:0 12:1 13:0 #
-0.20669955361793110326651401464915 1:1 2:0 3:0 4:0 5:1 6:1 7:1 8:1 9:0 10:1 11:0 12:1 13:0 #
0.20669955361793110326651401464915 1:0 2:0 3:0 4:0 5:0 6:0 7:0 8:0 9:0 10:0 11:0 12:0 13:0 #
0.20669955361793110326651401464915 1:0 2:1 3:0 4:0 5:0 6:1 7:0 8:0 9:0 10:0 11:0 12:0 13:0 #
0.20669955361793110326651401464915 1:0 2:0 3:0 4:0 5:0 6:0 7:1 8:1 9:0 10:0 11:0 12:0 13:0 #
-0.20669955361793110326651401464915 1:0 2:0 3:0 4:0 5:0 6:0 7:0 8:0 9:0 10:0 11:0 12:0 13:0 #
-0.20184030538327984993784980360942 1:0 2:0 3:0 4:0 5:0 6:0 7:0 8:0 9:0 10:0 11:1 12:0 13:0 #
0.20669955361793110326651401464915 1:1 2:0 3:0 4:0 5:1 6:1 7:1 8:1 9:0 10:0 11:1 12:1 13:0 #
-0.20669955361793110326651401464915 1:0 2:1 3:0 4:0 5:1 6:1 7:1 8:1 9:0 10:0 11:0 12:0 13:0 #
0.20669955361793110326651401464915 1:1 2:0 3:0 4:0 5:1 6:1 7:1 8:1 9:0 10:0 11:1 12:1 13:0 #
-0.20669955361793110326651401464915 1:1 2:0 3:0 4:0 5:1 6:0 7:1 8:1 9:0 10:0 11:1 12:1 13:0 #
-0.20669955361793110326651401464915 1:0 2:0 3:0 4:0 5:1 6:1 7:1 8:1 9:0 10:0 11:1 12:1 13:0 #
0.20669955361793110326651401464915 1:0 2:0 3:0 4:0 5:1 6:1 7:1 8:1 9:0 10:1 11:1 12:0 13:0 #
0.20669955361793110326651401464915 1:0 2:0 3:0 4:0 5:0 6:0 7:1 8:1 9:0 10:0 11:1 12:1 13:0 #
0.20669955361793110326651401464915 1:1 2:0 3:0 4:0 5:1 6:1 7:1 8:1 9:0 10:0 11:1 12:1 13:0 #
-0.20669955361793110326651401464915 1:0 2:0 3:0 4:0 5:0 6:1 7:1 8:1 9:0 10:0 11:0 12:0 13:0 #
-0.20669955361793110326651401464915 1:1 2:0 3:0 4:0 5:0 6:0 7:1 8:1 9:0 10:0 11:0 12:0 13:0 #
0.20669955361793110326651401464915 1:0 2:0 3:0 4:0 5:1 6:0 7:1 8:1 9:0 10:0 11:1 12:1 13:0 #
0.20669955361793110326651401464915 1:0 2:0 3:0 4:0 5:1 6:1 7:0 8:0 9:0 10:0 11:1 12:1 13:0 #
-0.20669955361793110326651401464915 1:0 2:0 3:0 4:0 5:1 6:1 7:1 8:1 9:0 10:0 11:1 12:1 13:0 #
0.20669955361793110326651401464915 1:1 2:0 3:0 4:0 5:0 6:0 7:1 8:1 9:0 10:0 11:0 12:0 13:0 #
-0.20669955361793110326651401464915 1:1 2:0 3:0 4:0 5:1 6:0 7:1 8:1 9:0 10:0 11:1 12:1 13:0 #
0.20669955361793110326651401464915 1:0 2:0 3:0 4:0 5:1 6:1 7:1 8:1 9:0 10:0 11:0 12:0 13:0 #
0.20669955361793110326651401464915 1:0 2:0 3:0 4:0 5:0 6:0 7:1 8:1 9:0 10:0 11:0 12:0 13:0 #
-0.20669955361793110326651401464915 1:0 2:0 3:0 4:0 5:0 6:1 7:1 8:1 9:0 10:0 11:0 12:0 13:0 #
-0.20669955361793110326651401464915 1:0 2:0 3:0 4:0 5:0 6:0 7:1 8:1 9:0 10:0 11:0 12:0 13:0 #
0.20669955361793110326651401464915 1:1 2:0 3:0 4:0 5:1 6:0 7:1 8:1 9:0 10:0 11:1 12:1 13:0 #
0.20669955361793110326651401464915 1:0 2:0 3:0 4:0 5:0 6:0 7:1 8:1 9:0 10:0 11:0 12:0 13:0 #
0.20669955361793110326651401464915 1:0 2:0 3:0 4:0 5:0 6:0 7:1 8:1 9:0 10:0 11:0 12:0 13:0 #
-0.20669955361793110326651401464915 1:1 2:0 3:0 4:0 5:1 6:0 7:1 8:1 9:0 10:0 11:0 12:1 13:0 #
0.20669955361793110326651401464915 1:0 2:0 3:0 4:0 5:1 6:0 7:0 8:0 9:0 10:1 11:0 12:0 13:0 #
-0.20669955361793110326651401464915 1:1 2:0 3:0 4:0 5:1 6:0 7:1 8:1 9:0 10:0 11:0 12:0 13:0 #
0.20669955361793110326651401464915 1:1 2:0 3:0 4:0 5:0 6:0 7:1 8:1 9:0 10:0 11:0 12:1 13:0 #
-0.20669955361793110326651401464915 1:0 2:0 3:0 4:0 5:0 6:0 7:1 8:1 9:0 10:0 11:0 12:1 13:0 #
0.20669955361793110326651401464915 1:0 2:0 3:0 4:0 5:1 6:1 7:1 8:1 9:0 10:0 11:0 12:0 13:0 #
0.20669955361793110326651401464915 1:1 2:0 3:0 4:0 5:1 6:1 7:1 8:1 9:0 10:0 11:0 12:0 13:0 #
-0.20669955361793110326651401464915 1:1 2:0 3:0 4:0 5:1 6:1 7:1 8:1 9:0 10:0 11:0 12:0 13:0 #
-0.20669955361793110326651401464915 1:0 2:0 3:0 4:0 5:0 6:1 7:1 8:1 9:0 10:0 11:0 12:1 13:0 #
-0.20669955361793110326651401464915 1:0 2:0 3:0 4:0 5:1 6:1 7:1 8:1 9:0 10:0 11:0 12:0 13:0 #
-0.20669955361793110326651401464915 1:1 2:0 3:0 4:0 5:1 6:0 7:1 8:1 9:0 10:0 11:0 12:0 13:0 #
-0.20669955361793110326651401464915 1:1 2:0 3:0 4:0 5:0 6:0 7:1 8:1 9:0 10:0 11:0 12:0 13:0 #
-0.20669955361793110326651401464915 1:0 2:0 3:0 4:0 5:0 6:0 7:0 8:0 9:0 10:0 11:1 12:0 13:0 #
0.20669955361793110326651401464915 1:0 2:0 3:0 4:0 5:1 6:1 7:1 8:1 9:0 10:0 11:0 12:1 13:0 #
0.20669955361793110326651401464915 1:0 2:0 3:0 4:0 5:1 6:0 7:1 8:1 9:0 10:0 11:1 12:1 13:0 #
-0.20669955361793110326651401464915 1:0 2:0 3:0 4:0 5:1 6:1 7:1 8:1 9:0 10:0 11:0 12:1 13:0 #
0.20669955361793110326651401464915 1:1 2:0 3:0 4:0 5:0 6:0 7:1 8:1 9:0 10:0 11:0 12:0 13:0 #
-0.20669955361793110326651401464915 1:1 2:0 3:0 4:0 5:1 6:0 7:1 8:1 9:0 10:0 11:0 12:1 13:0 #
-0.20669955361793110326651401464915 1:0 2:0 3:0 4:0 5:1 6:0 7:1 8:1 9:0 10:0 11:0 12:1 13:0 #
0.20669955361793110326651401464915 1:0 2:0 3:0 4:0 5:0 6:0 7:1 8:1 9:0 10:0 11:0 12:0 13:0 #
-0.20669955361793110326651401464915 1:0 2:0 3:0 4:0 5:0 6:0 7:1 8:1 9:0 10:0 11:0 12:0 13:0 #
0.20669955361793110326651401464915 1:1 2:0 3:0 4:0 5:1 6:1 7:1 8:1 9:0 10:0 11:0 12:1 13:0 #
-0.20669955361793110326651401464915 1:1 2:0 3:0 4:0 5:1 6:0 7:1 8:1 9:0 10:0 11:0 12:1 13:0 #
0.20669955361793110326651401464915 1:0 2:0 3:0 4:0 5:0 6:0 7:1 8:1 9:0 10:0 11:0 12:0 13:0 #
0.20669955361793110326651401464915 1:0 2:0 3:0 4:0 5:1 6:0 7:1 8:1 9:0 10:0 11:1 12:1 13:0 #
0.20669955361793110326651401464915 1:1 2:0 3:0 4:0 5:0 6:0 7:1 8:1 9:0 10:0 11:0 12:0 13:0 #
-0.20669955361793110326651401464915 1:0 2:0 3:0 4:0 5:1 6:1 7:1 8:1 9:0 10:0 11:1 12:1 13:0 #
0.20669955361793110326651401464915 1:1 2:0 3:0 4:0 5:1 6:0 7:1 8:1 9:0 10:0 11:0 12:0 13:0 #
-0.20669955361793110326651401464915 1:1 2:0 3:0 4:0 5:0 6:0 7:1 8:1 9:0 10:0 11:0 12:0 13:0 #
-0.20669955361793110326651401464915 1:1 2:0 3:0 4:0 5:1 6:0 7:1 8:1 9:0 10:0 11:0 12:0 13:0 #
0.20669955361793110326651401464915 1:0 2:0 3:0 4:0 5:1 6:1 7:1 8:1 9:0 10:0 11:0 12:1 13:0 #
0.20669955361793110326651401464915 1:0 2:0 3:0 4:0 5:0 6:0 7:1 8:1 9:0 10:0 11:0 12:1 13:0 #
-0.20669955361793110326651401464915 1:0 2:0 3:0 4:0 5:1 6:1 7:1 8:1 9:0 10:0 11:1 12:1 13:0 #
-0.20669955361793110326651401464915 1:0 2:0 3:0 4:0 5:0 6:0 7:1 8:1 9:0 10:0 11:0 12:1 13:0 #
0.20669955361793110326651401464915 1:1 2:0 3:0 4:0 5:1 6:1 7:1 8:1 9:0 10:0 11:0 12:0 13:0 #
-0.20669955361793110326651401464915 1:0 2:0 3:0 4:0 5:1 6:1 7:1 8:1 9:0 10:0 11:0 12:0 13:0 #
0.20669955361793110326651401464915 1:1 2:0 3:0 4:0 5:0 6:0 7:1 8:1 9:0 10:0 11:1 12:1 13:0 #
-0.20669955361793110326651401464915 1:0 2:0 3:0 4:0 5:0 6:0 7:1 8:1 9:0 10:0 11:1 12:1 13:0 #
0.20669955361793110326651401464915 1:0 2:1 3:0 4:0 5:1 6:1 7:1 8:1 9:0 10:0 11:0 12:0 13:0 #
-0.20669955361793110326651401464915 1:0 2:0 3:0 4:0 5:1 6:1 7:1 8:1 9:0 10:0 11:0 12:0 13:0 #
0.20669955361793110326651401464915 1:1 2:0 3:0 4:0 5:1 6:0 7:1 8:1 9:0 10:0 11:1 12:1 13:0 #
-0.20669955361793110326651401464915 1:1 2:0 3:0 4:0 5:1 6:0 7:1 8:1 9:0 10:0 11:0 12:1 13:0 #
-0.20669955361793110326651401464915 1:1 2:0 3:0 4:0 5:1 6:0 7:1 8:1 9:0 10:0 11:0 12:0 13:0 #
0.20669955361793110326651401464915 1:0 2:0 3:0 4:0 5:1 6:1 7:1 8:1 9:0 10:0 11:0 12:1 13:0 #
0.20669955361793110326651401464915 1:0 2:0 3:0 4:0 5:0 6:0 7:1 8:1 9:0 10:0 11:0 12:0 13:0 #
0.20669955361793110326651401464915 1:1 2:0 3:0 4:0 5:0 6:0 7:1 8:1 9:0 10:0 11:1 12:0 13:0 #
0.20669955361793110326651401464915 1:1 2:0 3:0 4:0 5:1 6:0 7:1 8:1 9:0 10:0 11:0 12:0 13:0 #
-0.20669955361793110326651401464915 1:0 2:0 3:0 4:0 5:0 6:1 7:1 8:1 9:0 10:0 11:0 12:1 13:0 #
-0.20669955361793110326651401464915 1:0 2:0 3:0 4:0 5:0 6:0 7:1 8:1 9:0 10:0 11:1 12:1 13:0 #
-0.20669955361793110326651401464915 1:1 2:0 3:0 4:0 5:1 6:0 7:1 8:1 9:0 10:0 11:0 12:0 13:0 #
0.20669955361793110326651401464915 1:1 2:0 3:0 4:0 5:0 6:0 7:1 8:1 9:0 10:0 11:0 12:1 13:0 #
-0.20669955361793110326651401464915 1:0 2:0 3:0 4:0 5:0 6:0 7:1 8:1 9:0 10:0 11:1 12:0 13:0 #
0.20669955361793110326651401464915 1:1 2:0 3:0 4:0 5:1 6:0 7:1 8:1 9:0 10:0 11:0 12:1 13:0 #
-0.20669955361793110326651401464915 1:1 2:0 3:0 4:0 5:1 6:0 7:1 8:1 9:0 10:0 11:0 12:1 13:0 #
-0.20669955361793110326651401464915 1:1 2:0 3:0 4:0 5:1 6:0 7:1 8:1 9:0 10:0 11:0 12:0 13:0 #
0.20669955361793110326651401464915 1:1 2:0 3:0 4:0 5:0 6:0 7:1 8:1 9:0 10:0 11:1 12:0 13:0 #
0.20669955361793110326651401464915 1:1 2:0 3:0 4:0 5:0 6:0 7:1 8:1 9:0 10:0 11:0 12:0 13:0 #
-0.20669955361793110326651401464915 1:0 2:0 3:0 4:0 5:0 6:0 7:1 8:1 9:0 10:0 11:1 12:0 13:0 #
0.20669955361793110326651401464915 1:1 2:0 3:0 4:0 5:1 6:0 7:1 8:1 9:0 10:0 11:0 12:1 13:0 #
-0.20669955361793110326651401464915 1:1 2:0 3:0 4:0 5:1 6:0 7:1 8:1 9:0 10:0 11:0 12:0 13:0 #
-0.20669955361793110326651401464915 1:0 2:0 3:0 4:0 5:0 6:0 7:1 8:1 9:0 10:0 11:0 12:1 13:0 #
0.20669955361793110326651401464915 1:0 2:1 3:0 4:0 5:1 6:1 7:1 8:1 9:0 10:0 11:1 12:1 13:0 #
0.20669955361793110326651401464915 1:1 2:0 3:0 4:0 5:1 6:0 7:1 8:1 9:0 10:0 11:0 12:0 13:0 #
-0.20669955361793110326651401464915 1:1 2:0 3:0 4:0 5:1 6:0 7:1 8:1 9:0 10:0 11:0 12:0 13:0 #
0.20669955361793110326651401464915 1:1 2:0 3:0 4:0 5:1 6:0 7:1 8:1 9:0 10:0 11:0 12:0 13:0 #
-0.20669955361793110326651401464915 1:1 2:0 3:0 4:0 5:1 6:0 7:1 8:1 9:0 10:0 11:0 12:0 13:0 #
0.20522464648612762094792572042934 1:0 2:0 3:0 4:1 5:1 6:1 7:0 8:0 9:0 10:1 11:1 12:1 13:0 #
0.20669955361793110326651401464915 1:0 2:0 3:1 4:0 5:0 6:0 7:0 8:0 9:0 10:1 11:1 12:1 13:0 #
0.0015181652975369414049211513884075 1:0 2:0 3:0 4:0 5:0 6:0 7:0 8:0 9:1 10:1 11:1 12:1 13:0 #
-0.016781074519526539834402001361013 1:0 2:0 3:0 4:0 5:0 6:0 7:0 8:0 9:0 10:0 11:1 12:1 13:0 #
-0.20669955361793110326651401464915 1:0 2:0 3:0 4:0 5:1 6:1 7:1 8:1 9:0 10:0 11:1 12:1 13:0 #
0.20669955361793110326651401464915 1:1 2:0 3:0 4:0 5:1 6:0 7:1 8:1 9:0 10:0 11:0 12:0 13:0 #
-0.2066987751677116236237452540081 1:0 2:0 3:0 4:0 5:1 6:0 7:1 8:1 9:0 10:0 11:0 12:0 13:0 #
0.20669955361793110326651401464915 1:1 2:0 3:0 4:0 5:1 6:0 7:1 8:1 9:0 10:0 11:0 12:0 13:0 #
-0.20669955361793110326651401464915 1:1 2:0 3:0 4:0 5:1 6:0 7:1 8:1 9:0 10:0 11:0 12:0 13:0 #
0.20669955361793110326651401464915 1:0 2:1 3:0 4:0 5:1 6:1 7:1 8:1 9:0 10:0 11:0 12:1 13:0 #
0.20669955361793110326651401464915 1:0 2:1 3:0 4:0 5:1 6:0 7:1 8:1 9:0 10:0 11:0 12:1 13:0 #
0.20669955361793110326651401464915 1:1 2:0 3:0 4:0 5:0 6:0 7:1 8:1 9:0 10:0 11:1 12:1 13:0 #
-0.20669955361793110326651401464915 1:0 2:0 3:0 4:0 5:0 6:0 7:1 8:1 9:0 10:0 11:1 12:1 13:0 #
0.20669955361793110326651401464915 1:1 2:0 3:0 4:0 5:1 6:0 7:1 8:1 9:0 10:0 11:0 12:0 13:0 #
-0.20669955361793110326651401464915 1:0 2:0 3:0 4:0 5:1 6:1 7:1 8:1 9:0 10:0 11:0 12:0 13:0 #
0.20669955361793110326651401464915 1:0 2:0 3:0 4:0 5:1 6:0 7:1 8:1 9:0 10:1 11:1 12:1 13:0 #
-0.20669955361793110326651401464915 1:0 2:0 3:0 4:0 5:1 6:0 7:1 8:1 9:0 10:0 11:0 12:1 13:0 #
0.20669955361793110326651401464915 1:0 2:1 3:0 4:0 5:1 6:1 7:1 8:1 9:0 10:0 11:0 12:0 13:0 #
0.20669955361793110326651401464915 1:0 2:0 3:0 4:0 5:0 6:0 7:1 8:1 9:0 10:1 11:0 12:0 13:0 #
-0.20669955361793110326651401464915 1:0 2:0 3:0 4:0 5:1 6:1 7:1 8:1 9:0 10:0 11:1 12:0 13:0 #
-0.11372847828588572571817394418758 1:0 2:0 3:0 4:0 5:0 6:0 7:1 8:1 9:0 10:0 11:1 12:0 13:0 #
0.20669955361793110326651401464915 1:1 2:0 3:0 4:0 5:1 6:0 7:1 8:1 9:0 10:0 11:0 12:1 13:0 #
0.20669955361793110326651401464915 1:1 2:0 3:0 4:0 5:1 6:0 7:1 8:1 9:0 10:0 11:1 12:1 13:0 #
0.20669955361793110326651401464915 1:0 2:0 3:0 4:0 5:1 6:1 7:1 8:1 9:0 10:1 11:0 12:0 13:0 #
0.085695207277246499000256108047324 1:0 2:0 3:1 4:0 5:0 6:0 7:1 8:1 9:0 10:1 11:0 12:0 13:0 #
-0.20669955361793110326651401464915 1:0 2:0 3:0 4:0 5:0 6:0 7:1 8:1 9:0 10:0 11:1 12:0 13:0 #
-0.20669955361793110326651401464915 1:0 2:0 3:0 4:0 5:1 6:1 7:1 8:1 9:0 10:0 11:0 12:0 13:0 #
0.20669955361793110326651401464915 1:0 2:1 3:0 4:0 5:1 6:1 7:1 8:1 9:0 10:0 11:0 12:0 13:0 #
-0.20669955361793110326651401464915 1:0 2:0 3:0 4:0 5:0 6:0 7:1 8:1 9:0 10:0 11:0 12:0 13:0 #
0.20669955361793110326651401464915 1:0 2:1 3:0 4:0 5:1 6:1 7:1 8:1 9:0 10:0 11:0 12:0 13:0 #
-0.20669955361793110326651401464915 1:0 2:0 3:0 4:0 5:1 6:1 7:1 8:1 9:0 10:0 11:0 12:0 13:0 #
-0.20669955361793110326651401464915 1:0 2:0 3:0 4:0 5:1 6:1 7:1 8:1 9:0 10:0 11:0 12:0 13:0 #
-0.20669955361793110326651401464915 1:0 2:0 3:0 4:0 5:1 6:0 7:1 8:1 9:0 10:0 11:1 12:0 13:0 #
0.20669955361793110326651401464915 1:1 2:0 3:0 4:0 5:0 6:0 7:1 8:1 9:0 10:0 11:0 12:0 13:0 #
-0.20669955361793110326651401464915 1:0 2:0 3:0 4:0 5:0 6:0 7:1 8:1 9:0 10:0 11:0 12:0 13:0 #
-0.20669955361793110326651401464915 1:0 2:0 3:0 4:0 5:1 6:1 7:1 8:1 9:0 10:0 11:0 12:0 13:0 #
0.20669955361793110326651401464915 1:0 2:0 3:0 4:0 5:1 6:1 7:1 8:1 9:0 10:1 11:0 12:0 13:0 #
0.0088754204741836595360382489161566 1:1 2:0 3:0 4:0 5:1 6:1 7:1 8:1 9:0 10:0 11:0 12:0 13:0 #
-0.20669955361793110326651401464915 1:0 2:0 3:0 4:0 5:1 6:1 7:1 8:1 9:0 10:0 11:0 12:1 13:0 #
0.20669955361793101999978716776241 1:1 2:0 3:0 4:0 5:1 6:0 7:1 8:1 9:0 10:0 11:0 12:0 13:0 #
0.20669955361793110326651401464915 1:0 2:0 3:0 4:0 5:1 6:1 7:1 8:1 9:0 10:1 11:0 12:1 13:0 #
-0.20669955361793110326651401464915 1:0 2:0 3:0 4:0 5:1 6:1 7:1 8:1 9:0 10:0 11:0 12:0 13:0 #
-0.0024027248639668097318633499526186 1:0 2:0 3:0 4:0 5:0 6:0 7:1 8:1 9:0 10:0 11:0 12:0 13:0 #
-0.20669955361793110326651401464915 1:0 2:0 3:0 4:0 5:1 6:1 7:1 8:1 9:0 10:0 11:0 12:1 13:0 #
0.0028874711474972669655869594862452 1:0 2:0 3:0 4:1 5:1 6:0 7:1 8:1 9:0 10:1 11:1 12:1 13:0 #
0.20669955361793110326651401464915 1:0 2:0 3:0 4:0 5:1 6:1 7:1 8:1 9:0 10:1 11:0 12:0 13:0 #
-0.12989885166061015953076207551931 1:0 2:0 3:0 4:0 5:1 6:1 7:1 8:1 9:0 10:0 11:0 12:1 13:0 #
0.096184605006788118086724637123552 1:1 2:0 3:0 4:0 5:0 6:0 7:1 8:1 9:0 10:0 11:0 12:1 13:0 #
0.20669955361793110326651401464915 1:0 2:0 3:0 4:0 5:1 6:1 7:1 8:1 9:0 10:1 11:0 12:1 13:0 #
-0.028063008353424845342516391610843 1:0 2:0 3:0 4:0 5:1 6:1 7:1 8:1 9:0 10:0 11:0 12:1 13:0 #
0.029253662773202515623438557668123 1:1 2:0 3:0 4:0 5:0 6:0 7:1 8:1 9:0 10:0 11:0 12:1 13:0 #
-0.15415143828150276728017331606679 1:0 2:0 3:0 4:0 5:1 6:1 7:1 8:1 9:0 10:0 11:0 12:1 13:0 #
0.13499696184078646687964919692604 1:0 2:0 3:0 4:0 5:1 6:1 7:1 8:1 9:0 10:1 11:0 12:1 13:0 #
0.0052162006915307257415292951918673 1:1 2:0 3:0 4:0 5:1 6:0 7:1 8:1 9:0 10:0 11:0 12:0 13:0 #
-3.6008408856500051077033692317667e-16 1:0 2:0 3:0 4:0 5:1 6:1 7:1 8:1 9:0 10:0 11:0 12:1 13:1 #
-0.027803193340793841414892995089758 1:0 2:0 3:0 4:0 5:1 6:1 7:1 8:1 9:0 10:0 11:0 12:1 13:0 #
-0.006977684897553793064162164228037 1:0 2:0 3:0 4:0 5:1 6:0 7:1 8:1 9:0 10:0 11:0 12:1 13:0 #
-4.4408920985006261616945266723633e-16 1:0 2:0 3:0 4:0 5:1 6:1 7:1 8:1 9:0 10:0 11:0 12:1 13:0 #
-0.0013560520216269189575086784316227 1:0 2:0 3:0 4:0 5:1 6:0 7:1 8:1 9:0 10:0 11:0 12:1 13:0 #
