SVM-light Version V6.02
0 # kernel type
3 # kernel parameter -d 
1 # kernel parameter -g 
1 # kernel parameter -s 
1 # kernel parameter -r 
empty# kernel parameter -u 
13 # highest feature index 
1212 # number of training documents 
211 # number of support vectors plus 1 
1.000023 # threshold b, each following line is a SV (starting with alpha*y)
-0.00074414862221243438522577662297408 1:0 2:0 3:0 4:0 5:1 6:1 7:1 8:1 9:0 10:0 11:0 12:0 13:1 #
-0.20744212570017520058662796600402 1:0 2:0 3:0 4:0 5:0 6:0 7:1 8:1 9:0 10:0 11:0 12:1 13:0 #
-0.20744212570017520058662796600402 1:1 2:0 3:1 4:0 5:1 6:1 7:1 8:1 9:0 10:1 11:1 12:1 13:0 #
-0.20744212570017520058662796600402 1:0 2:0 3:0 4:0 5:0 6:0 7:1 8:1 9:0 10:0 11:1 12:1 13:0 #
0.19712943640813940238132317972486 1:1 2:0 3:0 4:0 5:1 6:1 7:1 8:1 9:0 10:0 11:0 12:1 13:0 #
-0.14342532860701884267484729207354 1:0 2:0 3:0 4:0 5:1 6:0 7:0 8:0 9:0 10:0 11:0 12:0 13:0 #
0.007151806778928904151371170883067 1:1 2:0 3:0 4:0 5:1 6:1 7:1 8:1 9:0 10:0 11:1 12:1 13:0 #
0.20744212570017520058662796600402 1:0 2:0 3:0 4:0 5:0 6:0 7:1 8:1 9:0 10:0 11:0 12:0 13:0 #
-0.20744212570017520058662796600402 1:1 2:0 3:0 4:0 5:1 6:1 7:1 8:1 9:0 10:1 11:0 12:1 13:0 #
-0.20744212570017520058662796600402 1:1 2:1 3:0 4:0 5:1 6:1 7:1 8:1 9:0 10:0 11:0 12:1 13:0 #
-0.20744212570017520058662796600402 1:1 2:0 3:1 4:0 5:0 6:0 7:1 8:1 9:0 10:1 11:0 12:1 13:0 #
-0.20744212570017520058662796600402 1:1 2:0 3:0 4:0 5:0 6:0 7:1 8:1 9:0 10:1 11:0 12:0 13:0 #
-0.20744212570017520058662796600402 1:1 2:0 3:0 4:0 5:1 6:0 7:1 8:1 9:0 10:0 11:0 12:0 13:0 #
0.20744212570017520058662796600402 1:0 2:0 3:0 4:0 5:0 6:0 7:1 8:1 9:0 10:0 11:1 12:1 13:0 #
0.20744212570017520058662796600402 1:0 2:0 3:0 4:0 5:1 6:1 7:0 8:0 9:0 10:0 11:1 12:1 13:0 #
0.0018742811155820771062963103759103 1:0 2:0 3:0 4:0 5:0 6:0 7:0 8:0 9:1 10:1 11:1 12:1 13:0 #
-0.20744211845682883343933156083949 1:0 2:0 3:0 4:0 5:0 6:0 7:0 8:0 9:0 10:0 11:1 12:0 13:0 #
-0.08128228463537023884555310360156 1:0 2:0 3:0 4:0 5:0 6:0 7:0 8:0 9:0 10:0 11:1 12:1 13:0 #
0.20744212570017520058662796600402 1:0 2:0 3:0 4:0 5:0 6:1 7:1 8:1 9:0 10:0 11:0 12:0 13:0 #
0.20744212570017520058662796600402 1:1 2:0 3:0 4:0 5:0 6:0 7:1 8:1 9:0 10:0 11:0 12:1 13:0 #
0.20744212570017520058662796600402 1:0 2:0 3:0 4:0 5:0 6:0 7:1 8:1 9:0 10:0 11:1 12:1 13:0 #
-0.20744212570017520058662796600402 1:0 2:0 3:0 4:1 5:1 6:1 7:1 8:1 9:0 10:1 11:0 12:0 13:0 #
-0.20744212570017520058662796600402 1:0 2:1 3:0 4:1 5:0 6:0 7:1 8:1 9:0 10:1 11:0 12:0 13:0 #
0.20744212570017520058662796600402 1:0 2:0 3:0 4:0 5:0 6:0 7:1 8:1 9:0 10:0 11:0 12:1 13:0 #
-0.19130219600993464412752587122668 1:0 2:0 3:0 4:0 5:0 6:0 7:0 8:0 9:0 10:0 11:1 12:1 13:0 #
-0.20744212570017520058662796600402 1:0 2:0 3:0 4:0 5:0 6:0 7:1 8:1 9:0 10:0 11:1 12:0 13:0 #
-0.20744212570017520058662796600402 1:0 2:0 3:0 4:0 5:1 6:1 7:1 8:1 9:0 10:0 11:0 12:1 13:0 #
0.20744212570017520058662796600402 1:0 2:0 3:0 4:0 5:0 6:0 7:0 8:0 9:0 10:0 11:0 12:0 13:0 #
0.20744212570017520058662796600402 1:0 2:1 3:0 4:0 5:0 6:1 7:0 8:0 9:0 10:0 11:0 12:0 13:0 #
0.20744212570017520058662796600402 1:0 2:0 3:0 4:0 5:0 6:0 7:0 8:0 9:0 10:1 11:0 12:0 13:0 #
0.20744212570017520058662796600402 1:1 2:0 3:0 4:0 5:1 6:1 7:1 8:1 9:0 10:0 11:1 12:1 13:0 #
-0.20744212570017520058662796600402 1:1 2:1 3:0 4:0 5:0 6:0 7:1 8:1 9:0 10:0 11:1 12:1 13:0 #
0.20398574852311823768502563325455 1:0 2:0 3:0 4:1 5:1 6:0 7:1 8:1 9:0 10:1 11:1 12:1 13:0 #
0.20744212570017520058662796600402 1:0 2:0 3:0 4:0 5:1 6:0 7:1 8:1 9:0 10:0 11:1 12:1 13:0 #
-0.20744212570017520058662796600402 1:0 2:0 3:0 4:0 5:0 6:0 7:0 8:0 9:0 10:0 11:0 12:0 13:0 #
-0.20744212570017520058662796600402 1:0 2:0 3:0 4:0 5:0 6:1 7:0 8:0 9:0 10:0 11:0 12:0 13:0 #
0.20706506461191975798641351502738 1:1 2:0 3:0 4:0 5:1 6:1 7:1 8:1 9:0 10:0 11:1 12:1 13:0 #
-0.20744212570017520058662796600402 1:1 2:0 3:0 4:0 5:1 6:0 7:1 8:1 9:0 10:0 11:1 12:1 13:0 #
-0.20744212570017520058662796600402 1:0 2:0 3:0 4:0 5:1 6:0 7:1 8:1 9:0 10:0 11:1 12:1 13:0 #
-0.20744212570017520058662796600402 1:0 2:0 3:0 4:0 5:1 6:1 7:1 8:1 9:0 10:0 11:1 12:1 13:0 #
0.20744212570017520058662796600402 1:0 2:0 3:0 4:0 5:0 6:0 7:1 8:1 9:0 10:0 11:0 12:0 13:0 #
0.20744212570017520058662796600402 1:0 2:0 3:0 4:0 5:1 6:1 7:1 8:1 9:0 10:0 11:1 12:1 13:0 #
0.20744212570017520058662796600402 1:1 2:0 3:0 4:0 5:1 6:1 7:1 8:1 9:0 10:0 11:1 12:1 13:0 #
-0.20744212570017520058662796600402 1:0 2:0 3:0 4:0 5:1 6:1 7:0 8:0 9:0 10:0 11:0 12:0 13:0 #
-0.20744212570017520058662796600402 1:0 2:1 3:0 4:0 5:1 6:1 7:1 8:1 9:0 10:0 11:0 12:0 13:0 #
-0.20744212570017520058662796600402 1:0 2:0 3:0 4:0 5:0 6:1 7:1 8:1 9:0 10:0 11:0 12:1 13:0 #
0.0049150090753696806800121521519031 1:0 2:0 3:0 4:1 5:1 6:0 7:1 8:1 9:0 10:1 11:0 12:1 13:0 #
0.20744212570017520058662796600402 1:0 2:1 3:0 4:0 5:0 6:1 7:0 8:0 9:0 10:0 11:0 12:0 13:0 #
0.20744212570017520058662796600402 1:0 2:1 3:0 4:0 5:1 6:1 7:1 8:1 9:0 10:0 11:0 12:0 13:0 #
-0.20744212570017520058662796600402 1:0 2:1 3:0 4:0 5:1 6:1 7:1 8:1 9:0 10:0 11:0 12:0 13:0 #
-0.20744212570017520058662796600402 1:0 2:1 3:0 4:0 5:0 6:0 7:1 8:1 9:0 10:0 11:0 12:0 13:0 #
-0.20744212570017520058662796600402 1:0 2:0 3:0 4:0 5:1 6:1 7:1 8:1 9:0 10:0 11:0 12:0 13:0 #
0.20744212570017520058662796600402 1:1 2:0 3:0 4:0 5:0 6:0 7:1 8:1 9:0 10:0 11:1 12:1 13:0 #
0.20744212570017520058662796600402 1:1 2:0 3:0 4:0 5:0 6:0 7:1 8:1 9:0 10:0 11:0 12:1 13:0 #
-0.20744212570017520058662796600402 1:1 2:0 3:0 4:0 5:0 6:0 7:1 8:1 9:0 10:0 11:1 12:1 13:0 #
-0.20744212570017520058662796600402 1:1 2:0 3:0 4:0 5:1 6:0 7:1 8:1 9:0 10:0 11:1 12:1 13:0 #
-0.20744212570017520058662796600402 1:1 2:0 3:0 4:0 5:0 6:0 7:1 8:1 9:0 10:0 11:0 12:1 13:0 #
0.20744212570017520058662796600402 1:0 2:1 3:0 4:0 5:1 6:1 7:1 8:1 9:0 10:0 11:0 12:0 13:0 #
0.20744212570017520058662796600402 1:0 2:0 3:0 4:0 5:1 6:1 7:1 8:1 9:0 10:0 11:0 12:0 13:0 #
-0.20744212570017520058662796600402 1:0 2:0 3:0 4:0 5:1 6:1 7:1 8:1 9:0 10:0 11:0 12:0 13:0 #
0.20744212570017520058662796600402 1:1 2:0 3:0 4:0 5:0 6:0 7:1 8:1 9:0 10:0 11:1 12:1 13:0 #
0.20744212570017520058662796600402 1:1 2:0 3:0 4:0 5:0 6:0 7:1 8:1 9:0 10:0 11:0 12:1 13:0 #
-0.20744212570017520058662796600402 1:0 2:0 3:0 4:0 5:0 6:0 7:0 8:0 9:0 10:0 11:1 12:1 13:0 #
0.20744212570017520058662796600402 1:0 2:1 3:0 4:0 5:1 6:1 7:1 8:1 9:0 10:0 11:0 12:0 13:0 #
0.20744212570017520058662796600402 1:0 2:0 3:0 4:0 5:1 6:1 7:1 8:1 9:0 10:0 11:0 12:0 13:0 #
-0.20744212570017520058662796600402 1:1 2:0 3:0 4:0 5:1 6:1 7:1 8:1 9:0 10:0 11:0 12:0 13:0 #
-0.20744212570017520058662796600402 1:0 2:0 3:0 4:0 5:1 6:1 7:1 8:1 9:0 10:0 11:0 12:0 13:0 #
0.20744212570017520058662796600402 1:0 2:0 3:0 4:0 5:1 6:0 7:1 8:1 9:0 10:0 11:1 12:1 13:0 #
0.20744212570017520058662796600402 1:0 2:0 3:1 4:0 5:0 6:0 7:0 8:0 9:0 10:1 11:1 12:1 13:0 #
0.20744212570017520058662796600402 1:1 2:0 3:0 4:0 5:0 6:0 7:1 8:1 9:0 10:0 11:1 12:1 13:0 #
-0.20744212570017520058662796600402 1:0 2:0 3:0 4:0 5:0 6:0 7:1 8:1 9:0 10:0 11:1 12:1 13:0 #
0.20744212570017520058662796600402 1:0 2:0 3:0 4:0 5:1 6:1 7:1 8:1 9:0 10:0 11:0 12:0 13:0 #
-0.20744212570017520058662796600402 1:1 2:0 3:0 4:0 5:1 6:0 7:1 8:1 9:0 10:0 11:1 12:1 13:0 #
-0.20744212570017520058662796600402 1:0 2:0 3:0 4:0 5:0 6:0 7:1 8:1 9:0 10:0 11:1 12:1 13:0 #
-0.20744212570017520058662796600402 1:1 2:0 3:0 4:0 5:1 6:1 7:1 8:1 9:0 10:0 11:0 12:0 13:0 #
-0.20744212570017520058662796600402 1:0 2:0 3:0 4:0 5:0 6:0 7:0 8:0 9:0 10:0 11:1 12:1 13:0 #
0.20744212570017520058662796600402 1:0 2:0 3:0 4:0 5:1 6:0 7:1 8:1 9:0 10:0 11:1 12:1 13:0 #
0.20744212570017520058662796600402 1:1 2:0 3:0 4:0 5:0 6:0 7:1 8:1 9:0 10:0 11:1 12:0 13:0 #
0.20744212570017520058662796600402 1:0 2:0 3:0 4:0 5:1 6:1 7:1 8:1 9:0 10:0 11:0 12:0 13:0 #
0.20744212570017520058662796600402 1:0 2:0 3:0 4:0 5:0 6:0 7:1 8:1 9:0 10:0 11:0 12:0 13:0 #
-0.20744212570017520058662796600402 1:0 2:0 3:0 4:0 5:0 6:0 7:1 8:1 9:0 10:0 11:0 12:1 13:0 #
0.20744212570017520058662796600402 1:1 2:0 3:0 4:0 5:1 6:0 7:1 8:1 9:0 10:0 11:1 12:1 13:0 #
-0.20744212570017520058662796600402 1:0 2:0 3:0 4:0 5:1 6:0 7:1 8:1 9:0 10:0 11:1 12:1 13:0 #
0.20744212570017520058662796600402 1:0 2:0 3:0 4:0 5:0 6:0 7:1 8:1 9:0 10:0 11:0 12:1 13:0 #
-0.20744212570017520058662796600402 1:0 2:0 3:0 4:0 5:0 6:0 7:1 8:1 9:0 10:0 11:0 12:1 13:0 #
0.20744212570017520058662796600402 1:0 2:0 3:0 4:0 5:1 6:0 7:0 8:0 9:0 10:1 11:0 12:0 13:0 #
0.20675951079310017632906237849966 1:0 2:0 3:0 4:1 5:1 6:1 7:0 8:0 9:0 10:1 11:1 12:1 13:0 #
0.20744212570017520058662796600402 1:0 2:0 3:0 4:0 5:0 6:0 7:1 8:1 9:0 10:0 11:0 12:1 13:0 #
-0.20744212570017520058662796600402 1:0 2:0 3:0 4:0 5:1 6:1 7:1 8:1 9:0 10:0 11:0 12:0 13:0 #
0.20744212570017520058662796600402 1:1 2:0 3:0 4:0 5:1 6:0 7:1 8:1 9:0 10:0 11:1 12:1 13:0 #
-0.20744212570017520058662796600402 1:1 2:0 3:0 4:0 5:1 6:0 7:1 8:1 9:0 10:0 11:0 12:1 13:0 #
0.20744212570017520058662796600402 1:0 2:1 3:0 4:0 5:1 6:1 7:1 8:1 9:0 10:0 11:0 12:0 13:0 #
-0.20744212570017520058662796600402 1:0 2:0 3:0 4:0 5:1 6:1 7:1 8:1 9:0 10:0 11:1 12:0 13:0 #
-0.20744212570017520058662796600402 1:0 2:0 3:0 4:0 5:1 6:1 7:1 8:1 9:0 10:0 11:1 12:1 13:0 #
0.20744212570017520058662796600402 1:1 2:0 3:0 4:0 5:0 6:0 7:1 8:1 9:0 10:0 11:0 12:1 13:0 #
-0.20744212570017520058662796600402 1:1 2:0 3:0 4:0 5:0 6:0 7:1 8:1 9:0 10:0 11:0 12:0 13:0 #
-0.20744212570017520058662796600402 1:0 2:0 3:0 4:0 5:0 6:0 7:1 8:1 9:0 10:0 11:0 12:0 13:0 #
0.20744212570017520058662796600402 1:0 2:0 3:0 4:0 5:1 6:1 7:1 8:1 9:0 10:0 11:1 12:1 13:0 #
0.20744212570017520058662796600402 1:0 2:0 3:0 4:0 5:1 6:1 7:1 8:1 9:0 10:0 11:0 12:1 13:0 #
-0.20744212570017520058662796600402 1:0 2:0 3:0 4:0 5:1 6:1 7:1 8:1 9:0 10:0 11:1 12:1 13:0 #
0.2038841974696841141678760322975 1:1 2:0 3:0 4:0 5:0 6:0 7:1 8:1 9:0 10:0 11:0 12:0 13:0 #
-0.20744212570017520058662796600402 1:1 2:0 3:0 4:0 5:1 6:0 7:1 8:1 9:0 10:0 11:0 12:1 13:0 #
0.20744212570017520058662796600402 1:0 2:0 3:0 4:0 5:0 6:0 7:1 8:1 9:0 10:0 11:0 12:0 13:0 #
-0.20744212570017520058662796600402 1:0 2:0 3:0 4:0 5:0 6:1 7:1 8:1 9:0 10:0 11:0 12:1 13:0 #
-0.20744212570017520058662796600402 1:0 2:0 3:0 4:0 5:0 6:1 7:1 8:1 9:0 10:0 11:0 12:0 13:0 #
0.20744212570017520058662796600402 1:1 2:0 3:0 4:0 5:1 6:0 7:1 8:1 9:0 10:0 11:1 12:1 13:0 #
-0.20744212570017520058662796600402 1:1 2:0 3:0 4:0 5:1 6:0 7:1 8:1 9:0 10:0 11:1 12:0 13:0 #
-0.20744212570017520058662796600402 1:1 2:0 3:0 4:0 5:1 6:0 7:1 8:1 9:0 10:0 11:0 12:1 13:0 #
-0.20744212570017520058662796600402 1:0 2:0 3:0 4:0 5:0 6:0 7:1 8:1 9:0 10:0 11:0 12:0 13:0 #
0.20744212570017520058662796600402 1:1 2:0 3:0 4:0 5:1 6:1 7:1 8:1 9:0 10:0 11:1 12:1 13:0 #
-0.20744212570017520058662796600402 1:0 2:0 3:0 4:0 5:1 6:1 7:1 8:1 9:0 10:0 11:1 12:1 13:0 #
0.20744212570017520058662796600402 1:0 2:0 3:0 4:0 5:0 6:0 7:1 8:1 9:0 10:0 11:0 12:0 13:0 #
-0.20744212570017520058662796600402 1:1 2:0 3:0 4:0 5:0 6:0 7:1 8:1 9:0 10:0 11:0 12:0 13:0 #
-0.20744212570017520058662796600402 1:0 2:0 3:0 4:0 5:0 6:0 7:1 8:1 9:0 10:0 11:0 12:0 13:0 #
0.20744212570017520058662796600402 1:0 2:0 3:0 4:0 5:1 6:1 7:1 8:1 9:0 10:0 11:0 12:1 13:0 #
0.20744212570017520058662796600402 1:1 2:0 3:0 4:0 5:1 6:1 7:1 8:1 9:0 10:0 11:1 12:1 13:0 #
-0.20744212570017520058662796600402 1:0 2:0 3:0 4:0 5:1 6:1 7:1 8:1 9:0 10:0 11:1 12:1 13:0 #
0.20744212570017520058662796600402 1:0 2:0 3:0 4:0 5:0 6:0 7:1 8:1 9:0 10:0 11:0 12:0 13:0 #
-0.20744212570017520058662796600402 1:1 2:0 3:0 4:0 5:1 6:0 7:1 8:1 9:0 10:0 11:0 12:1 13:0 #
0.19707984729337449381070257459214 1:1 2:0 3:0 4:0 5:0 6:0 7:1 8:1 9:0 10:0 11:0 12:0 13:0 #
-0.20744212570017520058662796600402 1:1 2:0 3:0 4:0 5:0 6:0 7:1 8:1 9:0 10:0 11:0 12:0 13:0 #
0.20744212570017520058662796600402 1:1 2:0 3:0 4:0 5:1 6:0 7:1 8:1 9:0 10:0 11:1 12:1 13:0 #
-0.20395924497266446073773238367721 1:0 2:0 3:0 4:0 5:1 6:0 7:1 8:1 9:0 10:0 11:1 12:1 13:0 #
-0.20744212570017520058662796600402 1:0 2:0 3:0 4:0 5:1 6:1 7:1 8:1 9:0 10:0 11:1 12:1 13:0 #
0.20744212570017520058662796600402 1:1 2:0 3:0 4:0 5:0 6:0 7:1 8:1 9:0 10:0 11:0 12:0 13:0 #
0.20744212570017520058662796600402 1:0 2:1 3:0 4:0 5:1 6:1 7:1 8:1 9:0 10:0 11:0 12:1 13:0 #
0.20744212570017520058662796600402 1:0 2:1 3:0 4:0 5:1 6:1 7:1 8:1 9:0 10:0 11:1 12:1 13:0 #
0.20744212570017520058662796600402 1:0 2:0 3:0 4:0 5:0 6:0 7:1 8:1 9:0 10:0 11:0 12:1 13:0 #
0.20744212570017520058662796600402 1:1 2:0 3:0 4:0 5:1 6:0 7:1 8:1 9:0 10:0 11:0 12:0 13:0 #
-0.20744212570017520058662796600402 1:1 2:0 3:0 4:0 5:1 6:0 7:1 8:1 9:0 10:0 11:0 12:1 13:0 #
-0.20744212570017520058662796600402 1:1 2:0 3:0 4:0 5:1 6:0 7:1 8:1 9:0 10:0 11:0 12:0 13:0 #
0.20744212570017520058662796600402 1:1 2:0 3:0 4:0 5:1 6:1 7:1 8:1 9:0 10:0 11:1 12:0 13:0 #
0.20744212570017520058662796600402 1:0 2:0 3:0 4:0 5:1 6:1 7:1 8:1 9:0 10:1 11:1 12:0 13:0 #
-0.20744212570017520058662796600402 1:1 2:0 3:0 4:0 5:1 6:0 7:1 8:1 9:0 10:0 11:1 12:0 13:0 #
-0.20744212570017520058662796600402 1:1 2:0 3:0 4:0 5:1 6:0 7:1 8:1 9:0 10:0 11:0 12:1 13:0 #
0.20744212570017520058662796600402 1:1 2:0 3:0 4:0 5:1 6:0 7:1 8:1 9:0 10:0 11:0 12:1 13:0 #
-0.20744212570017520058662796600402 1:1 2:0 3:0 4:0 5:0 6:0 7:1 8:1 9:0 10:0 11:0 12:0 13:0 #
0.20744212570017520058662796600402 1:1 2:0 3:0 4:0 5:1 6:0 7:1 8:1 9:0 10:0 11:0 12:0 13:0 #
-0.20744212570017520058662796600402 1:1 2:0 3:0 4:0 5:1 6:0 7:1 8:1 9:0 10:0 11:0 12:0 13:0 #
0.20744212570017520058662796600402 1:1 2:0 3:0 4:0 5:0 6:0 7:1 8:1 9:0 10:0 11:0 12:1 13:0 #
-0.20744212570017520058662796600402 1:1 2:0 3:0 4:0 5:1 6:0 7:1 8:1 9:0 10:0 11:0 12:1 13:0 #
0.20744212570017520058662796600402 1:1 2:0 3:0 4:0 5:1 6:0 7:1 8:1 9:0 10:0 11:0 12:0 13:0 #
-0.20744212570017520058662796600402 1:0 2:0 3:0 4:0 5:0 6:1 7:1 8:1 9:0 10:0 11:0 12:1 13:0 #
0.20744212570017520058662796600402 1:1 2:0 3:0 4:0 5:1 6:0 7:1 8:1 9:0 10:0 11:0 12:0 13:0 #
-0.20744212570017520058662796600402 1:1 2:0 3:0 4:0 5:1 6:0 7:1 8:1 9:0 10:0 11:0 12:0 13:0 #
0.20744212570017520058662796600402 1:1 2:0 3:0 4:0 5:0 6:0 7:1 8:1 9:0 10:0 11:0 12:1 13:0 #
0.20744212570017520058662796600402 1:0 2:1 3:0 4:0 5:1 6:1 7:1 8:1 9:0 10:0 11:0 12:0 13:0 #
-0.20744212570017520058662796600402 1:1 2:0 3:0 4:0 5:1 6:0 7:1 8:1 9:0 10:0 11:0 12:0 13:0 #
0.20744212570017520058662796600402 1:1 2:0 3:0 4:0 5:1 6:0 7:1 8:1 9:0 10:0 11:0 12:0 13:0 #
-0.20744212570017520058662796600402 1:1 2:0 3:0 4:0 5:1 6:0 7:1 8:1 9:0 10:0 11:0 12:0 13:0 #
0.20744212570017520058662796600402 1:1 2:0 3:0 4:0 5:1 6:0 7:1 8:1 9:0 10:0 11:0 12:0 13:0 #
-0.20744212570017520058662796600402 1:1 2:0 3:0 4:0 5:1 6:0 7:1 8:1 9:0 10:0 11:0 12:0 13:0 #
0.20744212570017520058662796600402 1:1 2:0 3:0 4:0 5:1 6:0 7:1 8:1 9:0 10:0 11:0 12:0 13:0 #
-0.20744212570017520058662796600402 1:1 2:0 3:0 4:0 5:1 6:0 7:1 8:1 9:0 10:0 11:0 12:0 13:0 #
0.20744212570017520058662796600402 1:1 2:0 3:0 4:0 5:1 6:0 7:1 8:1 9:0 10:0 11:0 12:0 13:0 #
-0.20744212570017520058662796600402 1:1 2:0 3:0 4:0 5:1 6:0 7:1 8:1 9:0 10:0 11:0 12:0 13:0 #
0.20744212570017520058662796600402 1:1 2:0 3:0 4:0 5:1 6:0 7:1 8:1 9:0 10:0 11:0 12:0 13:0 #
-0.20744212570017520058662796600402 1:1 2:0 3:0 4:0 5:1 6:0 7:1 8:1 9:0 10:0 11:0 12:0 13:0 #
0.20744212570017520058662796600402 1:1 2:0 3:0 4:0 5:1 6:0 7:1 8:1 9:0 10:0 11:0 12:0 13:0 #
-0.20744212570017520058662796600402 1:0 2:0 3:0 4:0 5:0 6:1 7:1 8:1 9:0 10:0 11:0 12:0 13:0 #
-0.20744212570017520058662796600402 1:0 2:0 3:0 4:0 5:1 6:1 7:1 8:1 9:0 10:0 11:1 12:1 13:0 #
0.20744212570017520058662796600402 1:1 2:0 3:0 4:0 5:1 6:0 7:1 8:1 9:0 10:0 11:0 12:0 13:0 #
-0.20744212570017520058662796600402 1:0 2:0 3:0 4:0 5:1 6:0 7:1 8:1 9:0 10:0 11:0 12:0 13:0 #
0.20744212570017520058662796600402 1:1 2:0 3:0 4:0 5:1 6:1 7:1 8:1 9:0 10:0 11:1 12:1 13:0 #
-0.13056614439187863574431958113564 1:0 2:0 3:0 4:0 5:1 6:1 7:1 8:1 9:0 10:0 11:1 12:1 13:0 #
-0.20744212570017520058662796600402 1:0 2:0 3:0 4:0 5:1 6:1 7:1 8:1 9:0 10:0 11:0 12:1 13:0 #
0.20744212570017520058662796600402 1:1 2:0 3:0 4:0 5:1 6:0 7:1 8:1 9:0 10:0 11:0 12:0 13:0 #
-0.20744212570017520058662796600402 1:0 2:0 3:0 4:0 5:0 6:0 7:1 8:1 9:0 10:0 11:1 12:0 13:0 #
0.20744212570017520058662796600402 1:0 2:0 3:0 4:0 5:1 6:1 7:1 8:1 9:0 10:1 11:1 12:1 13:0 #
-0.20744212570017520058662796600402 1:0 2:0 3:0 4:0 5:1 6:1 7:1 8:1 9:0 10:0 11:0 12:1 13:0 #
0.20744212570017520058662796600402 1:1 2:0 3:0 4:0 5:0 6:0 7:1 8:1 9:0 10:0 11:1 12:0 13:0 #
0.20744212570017520058662796600402 1:1 2:0 3:0 4:0 5:0 6:0 7:1 8:1 9:0 10:0 11:0 12:0 13:0 #
-0.20744212570017520058662796600402 1:0 2:0 3:0 4:0 5:0 6:0 7:1 8:1 9:0 10:0 11:1 12:0 13:0 #
0.20744212570017520058662796600402 1:0 2:1 3:0 4:0 5:1 6:0 7:1 8:1 9:0 10:0 11:0 12:1 13:0 #
0.20744212570017520058662796600402 1:0 2:0 3:0 4:0 5:1 6:1 7:1 8:1 9:0 10:1 11:0 12:1 13:0 #
-0.20744212570017520058662796600402 1:0 2:0 3:0 4:0 5:1 6:1 7:1 8:1 9:0 10:0 11:0 12:1 13:0 #
0.20744212570017520058662796600402 1:0 2:0 3:0 4:0 5:0 6:0 7:1 8:1 9:0 10:1 11:0 12:0 13:0 #
-0.20744212570017520058662796600402 1:0 2:0 3:0 4:0 5:1 6:0 7:1 8:1 9:0 10:0 11:0 12:0 13:0 #
0.15122282998729830172379706709762 1:1 2:0 3:0 4:0 5:0 6:0 7:1 8:1 9:0 10:0 11:1 12:1 13:0 #
-0.20744212570017520058662796600402 1:0 2:0 3:0 4:0 5:1 6:0 7:1 8:1 9:0 10:0 11:1 12:1 13:0 #
0.20744212570017520058662796600402 1:0 2:0 3:0 4:0 5:1 6:1 7:1 8:1 9:0 10:1 11:0 12:0 13:0 #
-0.20744212570017520058662796600402 1:0 2:0 3:0 4:0 5:0 6:0 7:1 8:1 9:0 10:0 11:0 12:0 13:0 #
-0.15816746480399856977783201728016 1:0 2:0 3:0 4:0 5:1 6:1 7:1 8:1 9:0 10:0 11:1 12:1 13:0 #
0.070599417182858670294365310837748 1:0 2:0 3:1 4:0 5:0 6:0 7:1 8:1 9:0 10:1 11:0 12:0 13:0 #
0.20744212570017520058662796600402 1:1 2:0 3:0 4:0 5:0 6:0 7:1 8:1 9:0 10:0 11:0 12:0 13:0 #
-0.20744212570017520058662796600402 1:0 2:0 3:0 4:0 5:0 6:0 7:1 8:1 9:0 10:0 11:0 12:1 13:0 #
0.075496034117912974581443563693028 1:0 2:0 3:1 4:0 5:1 6:1 7:1 8:1 9:0 10:1 11:1 12:0 13:0 #
0.20744212570017520058662796600402 1:1 2:0 3:0 4:0 5:1 6:0 7:1 8:1 9:0 10:0 11:1 12:1 13:0 #
0.20744212570017520058662796600402 1:0 2:0 3:0 4:0 5:1 6:1 7:1 8:1 9:0 10:1 11:0 12:1 13:0 #
-0.14323892787327605069513936086878 1:0 2:0 3:0 4:0 5:1 6:0 7:1 8:1 9:0 10:0 11:1 12:0 13:0 #
0.20744212570017520058662796600402 1:1 2:0 3:0 4:0 5:1 6:0 7:1 8:1 9:0 10:0 11:0 12:1 13:0 #
0.20744212570017520058662796600402 1:0 2:0 3:0 4:0 5:0 6:0 7:1 8:1 9:0 10:1 11:0 12:0 13:0 #
-0.20744212570017520058662796600402 1:0 2:0 3:0 4:0 5:1 6:1 7:1 8:1 9:0 10:0 11:0 12:1 13:0 #
0.20744212570017520058662796600402 1:0 2:0 3:0 4:0 5:1 6:1 7:1 8:1 9:0 10:1 11:0 12:1 13:0 #
-0.19005955873359692276380883413367 1:0 2:0 3:0 4:0 5:1 6:1 7:1 8:1 9:0 10:0 11:0 12:1 13:0 #
-0.081428693082304270944860036252066 1:0 2:0 3:0 4:0 5:0 6:0 7:1 8:1 9:0 10:0 11:1 12:1 13:0 #
0.20683054584971360956302532940754 1:1 2:0 3:0 4:0 5:1 6:1 7:1 8:1 9:0 10:0 11:0 12:0 13:0 #
-0.20744212570017520058662796600402 1:0 2:0 3:0 4:0 5:1 6:1 7:1 8:1 9:0 10:0 11:0 12:0 13:0 #
0.20744212570017520058662796600402 1:1 2:0 3:0 4:0 5:1 6:0 7:1 8:1 9:0 10:0 11:1 12:1 13:0 #
-0.13284498551161746937587793127022 1:0 2:0 3:0 4:0 5:1 6:1 7:1 8:1 9:0 10:0 11:1 12:0 13:0 #
-0.050942910233459148816592687580851 1:0 2:0 3:0 4:0 5:0 6:0 7:1 8:1 9:0 10:0 11:0 12:0 13:0 #
0.061866467234202589253744264397028 1:0 2:0 3:1 4:0 5:0 6:0 7:1 8:1 9:0 10:1 11:1 12:1 13:0 #
0.20744212570017520058662796600402 1:0 2:0 3:0 4:0 5:1 6:1 7:1 8:1 9:0 10:1 11:0 12:0 13:0 #
-0.03898292413480272666781445423112 1:0 2:0 3:0 4:0 5:1 6:1 7:1 8:1 9:0 10:0 11:0 12:0 13:0 #
-0.059650723263982019517470689606853 1:0 2:0 3:0 4:0 5:1 6:1 7:1 8:1 9:0 10:0 11:0 12:0 13:0 #
-0.074439635964004935431148624047637 1:0 2:0 3:0 4:0 5:0 6:1 7:1 8:1 9:0 10:0 11:0 12:0 13:0 #
-0.031077158160684126286810169403907 1:0 2:0 3:0 4:0 5:1 6:1 7:1 8:1 9:0 10:0 11:0 12:0 13:0 #
0.1286424065505483715909917918907 1:0 2:0 3:0 4:0 5:1 6:1 7:1 8:1 9:0 10:1 11:0 12:0 13:0 #
-0.0052554773075760893158436815042478 1:0 2:0 3:0 4:0 5:1 6:1 7:1 8:1 9:0 10:0 11:0 12:1 13:0 #
0.00030732177345904609921944938832894 1:0 2:0 3:1 4:0 5:1 6:0 7:1 8:1 9:0 10:1 11:0 12:0 13:0 #
