SVM-light Version V6.02
0 # kernel type
3 # kernel parameter -d 
1 # kernel parameter -g 
1 # kernel parameter -s 
1 # kernel parameter -r 
empty# kernel parameter -u 
13 # highest feature index 
897 # number of training documents 
153 # number of support vectors plus 1 
0.99922078 # threshold b, each following line is a SV (starting with alpha*y)
-0.18618316851013611001874892281194 1:0 2:0 3:0 4:0 5:0 6:0 7:1 8:1 9:0 10:0 11:1 12:0 13:0 #
-1.332267629550187848508358001709e-15 1:0 2:0 3:0 4:0 5:1 6:1 7:1 8:1 9:0 10:0 11:0 12:0 13:1 #
-0.20274867903151039261189225726412 1:0 2:0 3:0 4:0 5:1 6:1 7:1 8:1 9:0 10:0 11:0 12:0 13:0 #
-0.20274867903151039261189225726412 1:0 2:0 3:0 4:0 5:0 6:0 7:1 8:1 9:0 10:0 11:0 12:0 13:0 #
-0.20274867903151039261189225726412 1:0 2:0 3:0 4:0 5:0 6:0 7:1 8:1 9:0 10:0 11:1 12:0 13:0 #
-0.17399302478722208920025593670289 1:0 2:0 3:0 4:0 5:1 6:1 7:1 8:1 9:0 10:0 11:1 12:0 13:0 #
0.20274867903151039261189225726412 1:0 2:1 3:0 4:0 5:1 6:1 7:1 8:1 9:0 10:0 11:0 12:0 13:0 #
0.20274867903151039261189225726412 1:1 2:0 3:0 4:0 5:1 6:0 7:1 8:1 9:0 10:0 11:0 12:0 13:0 #
-0.20274867903151039261189225726412 1:1 2:1 3:0 4:0 5:1 6:1 7:1 8:1 9:0 10:0 11:0 12:1 13:0 #
0.20274867903151039261189225726412 1:0 2:0 3:0 4:0 5:0 6:0 7:1 8:1 9:0 10:0 11:0 12:0 13:0 #
-0.20274867903151039261189225726412 1:1 2:0 3:1 4:0 5:0 6:0 7:1 8:1 9:0 10:1 11:0 12:1 13:0 #
0.20274867903151039261189225726412 1:0 2:0 3:0 4:0 5:0 6:1 7:0 8:0 9:0 10:0 11:0 12:0 13:0 #
-0.20274867903151039261189225726412 1:0 2:0 3:0 4:0 5:0 6:1 7:0 8:0 9:0 10:0 11:0 12:0 13:0 #
-0.20274867903151039261189225726412 1:1 2:0 3:0 4:0 5:1 6:1 7:1 8:1 9:0 10:0 11:0 12:0 13:0 #
-0.20274867903151039261189225726412 1:0 2:1 3:0 4:0 5:1 6:1 7:1 8:1 9:0 10:0 11:0 12:0 13:0 #
-0.20274867903151039261189225726412 1:0 2:0 3:0 4:0 5:1 6:1 7:1 8:1 9:0 10:0 11:0 12:0 13:0 #
0.20274867903151039261189225726412 1:0 2:0 3:1 4:0 5:0 6:0 7:1 8:1 9:0 10:1 11:1 12:1 13:0 #
0.20274867903151039261189225726412 1:0 2:0 3:0 4:0 5:0 6:0 7:1 8:1 9:0 10:1 11:1 12:1 13:0 #
0.20274867903151039261189225726412 1:0 2:0 3:0 4:0 5:0 6:0 7:1 8:1 9:0 10:0 11:1 12:1 13:0 #
-0.20274867903151039261189225726412 1:0 2:0 3:0 4:0 5:0 6:0 7:1 8:1 9:0 10:0 11:0 12:0 13:0 #
-0.20274867903151039261189225726412 1:1 2:1 3:0 4:0 5:0 6:0 7:1 8:1 9:0 10:0 11:1 12:1 13:0 #
-0.20274867903151039261189225726412 1:0 2:0 3:0 4:0 5:0 6:0 7:0 8:0 9:0 10:0 11:1 12:1 13:0 #
-0.20274867903151039261189225726412 1:0 2:0 3:0 4:0 5:0 6:0 7:1 8:1 9:0 10:0 11:1 12:1 13:0 #
0.20274867903151039261189225726412 1:0 2:1 3:0 4:0 5:1 6:1 7:1 8:1 9:0 10:0 11:0 12:0 13:0 #
0.20274867903151039261189225726412 1:0 2:0 3:0 4:0 5:1 6:1 7:1 8:1 9:0 10:0 11:0 12:0 13:0 #
-0.20274867903151039261189225726412 1:1 2:0 3:1 4:0 5:1 6:1 7:1 8:1 9:0 10:1 11:1 12:1 13:0 #
-0.20274867903151039261189225726412 1:0 2:0 3:0 4:1 5:1 6:1 7:1 8:1 9:0 10:1 11:0 12:0 13:0 #
-0.20274867903151039261189225726412 1:0 2:1 3:0 4:1 5:0 6:0 7:1 8:1 9:0 10:1 11:0 12:0 13:0 #
-0.20274867903151039261189225726412 1:0 2:0 3:0 4:0 5:1 6:0 7:1 8:1 9:0 10:0 11:1 12:1 13:0 #
0.20274867903151039261189225726412 1:1 2:0 3:0 4:0 5:0 6:0 7:1 8:1 9:0 10:0 11:0 12:1 13:0 #
0.20274867903151039261189225726412 1:0 2:1 3:0 4:0 5:0 6:1 7:0 8:0 9:0 10:0 11:0 12:0 13:0 #
0.20274867903151039261189225726412 1:1 2:0 3:0 4:0 5:0 6:0 7:1 8:1 9:0 10:0 11:0 12:1 13:0 #
-0.20274867903151039261189225726412 1:0 2:0 3:0 4:0 5:0 6:0 7:0 8:0 9:0 10:0 11:0 12:0 13:0 #
0.20274867903151039261189225726412 1:0 2:0 3:0 4:1 5:1 6:0 7:1 8:1 9:0 10:1 11:1 12:1 13:0 #
0.14080424986715234236811511436827 1:0 2:0 3:1 4:0 5:1 6:1 7:1 8:1 9:0 10:1 11:1 12:0 13:0 #
-0.20274867903151039261189225726412 1:1 2:0 3:0 4:0 5:1 6:0 7:1 8:1 9:0 10:0 11:0 12:1 13:0 #
-0.20274867903151039261189225726412 1:0 2:1 3:0 4:0 5:0 6:0 7:1 8:1 9:0 10:0 11:0 12:0 13:0 #
0.20274867903151039261189225726412 1:0 2:0 3:1 4:0 5:1 6:1 7:1 8:1 9:0 10:1 11:0 12:0 13:0 #
0.20274867903151039261189225726412 1:0 2:0 3:0 4:0 5:0 6:0 7:1 8:1 9:0 10:0 11:0 12:0 13:0 #
-0.20274867903151039261189225726412 1:0 2:0 3:0 4:0 5:0 6:1 7:1 8:1 9:0 10:0 11:0 12:0 13:0 #
-0.20274867903151039261189225726412 1:0 2:0 3:0 4:0 5:1 6:1 7:1 8:1 9:0 10:0 11:1 12:0 13:0 #
0.20274867903151039261189225726412 1:1 2:0 3:0 4:0 5:0 6:0 7:1 8:1 9:0 10:0 11:0 12:1 13:0 #
0.20274867903151039261189225726412 1:1 2:0 3:0 4:0 5:1 6:0 7:1 8:1 9:0 10:0 11:0 12:1 13:0 #
0.20274867903151039261189225726412 1:1 2:0 3:0 4:0 5:1 6:0 7:1 8:1 9:0 10:0 11:1 12:1 13:0 #
-0.20274867903151039261189225726412 1:1 2:0 3:0 4:0 5:1 6:0 7:1 8:1 9:0 10:0 11:0 12:1 13:0 #
-0.20274867903151039261189225726412 1:1 2:0 3:0 4:0 5:1 6:0 7:1 8:1 9:0 10:0 11:0 12:0 13:0 #
0.20274867903151039261189225726412 1:0 2:1 3:0 4:0 5:0 6:1 7:0 8:0 9:0 10:0 11:0 12:0 13:0 #
0.20274867903151039261189225726412 1:0 2:0 3:0 4:0 5:0 6:0 7:1 8:1 9:0 10:1 11:0 12:0 13:0 #
0.20274867903151039261189225726412 1:0 2:0 3:0 4:0 5:1 6:1 7:1 8:1 9:0 10:0 11:0 12:0 13:0 #
0.20274867903151039261189225726412 1:0 2:1 3:0 4:0 5:1 6:1 7:1 8:1 9:0 10:0 11:0 12:0 13:0 #
-0.20274867903151039261189225726412 1:0 2:0 3:0 4:0 5:1 6:1 7:1 8:1 9:0 10:0 11:1 12:1 13:0 #
0.20274867903151039261189225726412 1:0 2:0 3:0 4:0 5:0 6:0 7:1 8:1 9:0 10:0 11:0 12:0 13:0 #
-0.20274867903151039261189225726412 1:1 2:0 3:0 4:0 5:0 6:0 7:1 8:1 9:0 10:0 11:0 12:0 13:0 #
-0.20274867903151039261189225726412 1:0 2:0 3:0 4:0 5:0 6:0 7:1 8:1 9:0 10:0 11:0 12:0 13:0 #
0.20274867903151039261189225726412 1:0 2:0 3:0 4:0 5:1 6:1 7:1 8:1 9:0 10:0 11:1 12:1 13:0 #
0.20274867903151039261189225726412 1:0 2:0 3:0 4:0 5:1 6:0 7:1 8:1 9:0 10:0 11:1 12:1 13:0 #
-0.20274867903151039261189225726412 1:0 2:0 3:0 4:0 5:1 6:1 7:1 8:1 9:0 10:0 11:1 12:1 13:0 #
0.20274867903151039261189225726412 1:1 2:0 3:0 4:0 5:0 6:0 7:1 8:1 9:0 10:0 11:0 12:0 13:0 #
-0.20274867903151039261189225726412 1:0 2:0 3:0 4:0 5:1 6:0 7:1 8:1 9:0 10:0 11:1 12:1 13:0 #
0.20274867903151039261189225726412 1:0 2:0 3:0 4:0 5:0 6:0 7:1 8:1 9:0 10:0 11:0 12:0 13:0 #
-0.20274867903151039261189225726412 1:1 2:0 3:0 4:0 5:0 6:0 7:1 8:1 9:0 10:0 11:0 12:0 13:0 #
-0.20274867903151039261189225726412 1:0 2:0 3:0 4:0 5:0 6:0 7:1 8:1 9:0 10:0 11:0 12:0 13:0 #
0.20274867903151039261189225726412 1:0 2:0 3:0 4:0 5:1 6:1 7:1 8:1 9:0 10:0 11:1 12:1 13:0 #
0.20274867903151039261189225726412 1:0 2:0 3:0 4:0 5:1 6:0 7:1 8:1 9:0 10:0 11:1 12:1 13:0 #
-0.20274867903151039261189225726412 1:0 2:0 3:0 4:0 5:1 6:1 7:1 8:1 9:0 10:0 11:1 12:1 13:0 #
0.20274867903151039261189225726412 1:1 2:0 3:0 4:0 5:0 6:0 7:1 8:1 9:0 10:0 11:0 12:0 13:0 #
-0.20274867903151039261189225726412 1:0 2:0 3:0 4:0 5:1 6:0 7:1 8:1 9:0 10:0 11:1 12:1 13:0 #
-0.20274867903151039261189225726412 1:0 2:0 3:0 4:0 5:1 6:1 7:1 8:1 9:0 10:0 11:1 12:1 13:0 #
0.20274867903151039261189225726412 1:0 2:0 3:0 4:0 5:0 6:0 7:1 8:1 9:0 10:0 11:0 12:0 13:0 #
0.20274867903151039261189225726412 1:1 2:0 3:0 4:0 5:0 6:0 7:1 8:1 9:0 10:0 11:0 12:0 13:0 #
-0.20274867903151039261189225726412 1:1 2:0 3:0 4:0 5:1 6:0 7:1 8:1 9:0 10:0 11:0 12:0 13:0 #
0.0040095589955249366642675568073173 1:0 2:0 3:1 4:0 5:1 6:1 7:1 8:1 9:0 10:1 11:0 12:0 13:0 #
0.20274867903151039261189225726412 1:0 2:0 3:0 4:0 5:1 6:0 7:1 8:1 9:0 10:0 11:1 12:1 13:0 #
-0.20274867903151039261189225726412 1:0 2:0 3:0 4:0 5:0 6:0 7:1 8:1 9:0 10:0 11:0 12:0 13:0 #
0.20274867903151039261189225726412 1:1 2:0 3:0 4:0 5:1 6:1 7:1 8:1 9:0 10:0 11:1 12:1 13:0 #
-0.20274867903151039261189225726412 1:0 2:0 3:0 4:0 5:1 6:1 7:1 8:1 9:0 10:0 11:0 12:1 13:0 #
0.20274867903151039261189225726412 1:0 2:0 3:0 4:0 5:0 6:0 7:1 8:1 9:0 10:0 11:0 12:1 13:0 #
0.20274867903151039261189225726412 1:1 2:0 3:0 4:0 5:0 6:0 7:1 8:1 9:0 10:0 11:1 12:0 13:0 #
-0.20274867903151039261189225726412 1:0 2:0 3:0 4:0 5:0 6:0 7:1 8:1 9:0 10:0 11:1 12:1 13:0 #
0.20274867903151039261189225726412 1:0 2:0 3:0 4:0 5:1 6:1 7:1 8:1 9:0 10:0 11:0 12:0 13:0 #
-0.20274867903151039261189225726412 1:1 2:0 3:0 4:0 5:1 6:0 7:1 8:1 9:0 10:0 11:0 12:0 13:0 #
0.20274867903151039261189225726412 1:0 2:0 3:0 4:0 5:0 6:0 7:1 8:1 9:0 10:0 11:0 12:1 13:0 #
0.20274867903151039261189225726412 1:1 2:0 3:0 4:0 5:0 6:0 7:1 8:1 9:0 10:0 11:1 12:1 13:0 #
0.13820547469688393427134087687591 1:1 2:0 3:0 4:0 5:1 6:1 7:1 8:1 9:0 10:0 11:0 12:0 13:0 #
-0.20274867903151039261189225726412 1:0 2:0 3:0 4:0 5:0 6:1 7:1 8:1 9:0 10:0 11:0 12:0 13:0 #
-0.20274867903151039261189225726412 1:0 2:0 3:0 4:0 5:0 6:0 7:1 8:1 9:0 10:0 11:0 12:1 13:0 #
0.20274867903151039261189225726412 1:1 2:0 3:0 4:0 5:1 6:0 7:1 8:1 9:0 10:0 11:1 12:0 13:0 #
0.20274867903151039261189225726412 1:1 2:0 3:0 4:0 5:1 6:0 7:1 8:1 9:0 10:0 11:0 12:0 13:0 #
-0.20274867903151039261189225726412 1:1 2:0 3:0 4:0 5:1 6:0 7:1 8:1 9:0 10:0 11:0 12:0 13:0 #
-0.20274867903151039261189225726412 1:1 2:0 3:0 4:0 5:1 6:0 7:1 8:1 9:0 10:0 11:0 12:0 13:0 #
0.20274867903151039261189225726412 1:0 2:0 3:0 4:0 5:0 6:0 7:1 8:1 9:0 10:0 11:0 12:1 13:0 #
0.20234050918804488694568988194078 1:0 2:0 3:0 4:1 5:1 6:0 7:1 8:1 9:0 10:1 11:0 12:1 13:0 #
0.20274867903151039261189225726412 1:1 2:0 3:0 4:0 5:0 6:0 7:1 8:1 9:0 10:0 11:0 12:1 13:0 #
-0.20274867903151039261189225726412 1:0 2:0 3:0 4:0 5:0 6:0 7:1 8:1 9:0 10:0 11:1 12:1 13:0 #
0.20274867903151039261189225726412 1:1 2:0 3:0 4:0 5:1 6:0 7:1 8:1 9:0 10:0 11:0 12:0 13:0 #
-0.20274867903151039261189225726412 1:1 2:0 3:0 4:0 5:1 6:0 7:1 8:1 9:0 10:0 11:0 12:0 13:0 #
-0.20274867903151039261189225726412 1:0 2:0 3:0 4:0 5:1 6:1 7:1 8:1 9:0 10:0 11:0 12:1 13:0 #
0.20274867903151039261189225726412 1:0 2:0 3:0 4:0 5:0 6:0 7:1 8:1 9:0 10:0 11:0 12:1 13:0 #
-0.20274867903151039261189225726412 1:0 2:0 3:0 4:0 5:0 6:0 7:1 8:1 9:0 10:0 11:1 12:1 13:0 #
0.20255387394577933912742651045846 1:1 2:0 3:0 4:0 5:1 6:1 7:1 8:1 9:0 10:0 11:0 12:0 13:0 #
-0.20274867903151039261189225726412 1:1 2:0 3:0 4:0 5:1 6:0 7:1 8:1 9:0 10:0 11:0 12:0 13:0 #
-0.20274867903151039261189225726412 1:0 2:0 3:0 4:0 5:0 6:1 7:1 8:1 9:0 10:0 11:0 12:0 13:0 #
-0.20274867903151039261189225726412 1:0 2:0 3:0 4:0 5:0 6:0 7:1 8:1 9:0 10:0 11:0 12:0 13:0 #
0.14568123265806220967277795352857 1:0 2:0 3:0 4:1 5:1 6:0 7:1 8:1 9:0 10:1 11:1 12:1 13:0 #
0.20274867903151039261189225726412 1:0 2:1 3:0 4:0 5:1 6:1 7:1 8:1 9:0 10:0 11:1 12:1 13:0 #
0.20274867903151039261189225726412 1:0 2:0 3:0 4:0 5:1 6:1 7:1 8:1 9:0 10:1 11:1 12:1 13:0 #
-0.20274867903151039261189225726412 1:0 2:0 3:0 4:0 5:1 6:1 7:1 8:1 9:0 10:0 11:1 12:1 13:0 #
0.20274867903151039261189225726412 1:1 2:0 3:0 4:0 5:1 6:0 7:1 8:1 9:0 10:0 11:0 12:0 13:0 #
-0.20274867903151039261189225726412 1:1 2:0 3:0 4:0 5:1 6:0 7:1 8:1 9:0 10:0 11:0 12:0 13:0 #
-0.10471809460655745471768796051037 1:0 2:0 3:0 4:0 5:1 6:0 7:1 8:1 9:0 10:0 11:1 12:1 13:0 #
0.20274867903151039261189225726412 1:1 2:0 3:0 4:0 5:0 6:0 7:1 8:1 9:0 10:0 11:1 12:0 13:0 #
-0.058904177651526633263667775963768 1:0 2:0 3:0 4:0 5:0 6:0 7:1 8:1 9:0 10:0 11:1 12:1 13:0 #
-0.20274867903151039261189225726412 1:0 2:0 3:0 4:0 5:1 6:1 7:1 8:1 9:0 10:0 11:1 12:1 13:0 #
-0.036689840872482559763767540061963 1:0 2:0 3:0 4:0 5:0 6:0 7:1 8:1 9:0 10:0 11:1 12:1 13:0 #
0.20274867903151039261189225726412 1:1 2:0 3:0 4:0 5:1 6:0 7:1 8:1 9:0 10:0 11:0 12:0 13:0 #
-0.20274867903151039261189225726412 1:0 2:0 3:0 4:0 5:1 6:0 7:1 8:1 9:0 10:0 11:0 12:0 13:0 #
-0.20274867903151039261189225726412 1:0 2:0 3:0 4:0 5:1 6:1 7:1 8:1 9:0 10:0 11:0 12:1 13:0 #
0.20274867903151039261189225726412 1:1 2:0 3:0 4:0 5:1 6:0 7:1 8:1 9:0 10:0 11:0 12:0 13:0 #
-0.20274867903151039261189225726412 1:0 2:0 3:0 4:0 5:0 6:0 7:1 8:1 9:0 10:0 11:0 12:0 13:0 #
0.20274867903151039261189225726412 1:0 2:1 3:0 4:0 5:1 6:1 7:1 8:1 9:0 10:0 11:0 12:1 13:0 #
-0.20274867903151039261189225726412 1:0 2:0 3:0 4:0 5:1 6:1 7:1 8:1 9:0 10:0 11:0 12:1 13:0 #
0.20274867903151039261189225726412 1:1 2:0 3:0 4:0 5:0 6:0 7:1 8:1 9:0 10:0 11:1 12:0 13:0 #
0.20274867903151039261189225726412 1:0 2:0 3:0 4:0 5:1 6:1 7:1 8:1 9:0 10:1 11:0 12:0 13:0 #
-0.20274867903151039261189225726412 1:0 2:0 3:0 4:0 5:1 6:0 7:1 8:1 9:0 10:0 11:0 12:0 13:0 #
0.20274867903151039261189225726412 1:0 2:0 3:0 4:0 5:1 6:1 7:1 8:1 9:0 10:1 11:0 12:1 13:0 #
0.20274867903151039261189225726412 1:1 2:0 3:0 4:0 5:1 6:0 7:1 8:1 9:0 10:0 11:0 12:0 13:0 #
-0.20274867903151039261189225726412 1:0 2:0 3:0 4:0 5:0 6:0 7:1 8:1 9:0 10:0 11:0 12:0 13:0 #
0.14264194446561956342023336219427 1:0 2:0 3:0 4:0 5:1 6:1 7:1 8:1 9:1 10:1 11:1 12:1 13:0 #
-0.20274867903151039261189225726412 1:0 2:0 3:0 4:0 5:1 6:0 7:1 8:1 9:0 10:0 11:0 12:1 13:0 #
0.20274867903151039261189225726412 1:0 2:0 3:0 4:0 5:1 6:1 7:1 8:1 9:0 10:1 11:1 12:0 13:0 #
0.20274867903151039261189225726412 1:1 2:0 3:0 4:0 5:1 6:1 7:1 8:1 9:0 10:0 11:0 12:0 13:0 #
0.20274867903151039261189225726412 1:1 2:0 3:0 4:0 5:0 6:0 7:1 8:1 9:0 10:0 11:0 12:1 13:0 #
0.20274867903151039261189225726412 1:1 2:0 3:0 4:0 5:1 6:0 7:1 8:1 9:0 10:0 11:0 12:0 13:0 #
-0.083145771537021809227674395970098 1:0 2:0 3:0 4:0 5:0 6:0 7:1 8:1 9:0 10:0 11:1 12:1 13:0 #
-0.20274867903151039261189225726412 1:0 2:0 3:0 4:0 5:1 6:0 7:1 8:1 9:0 10:0 11:0 12:0 13:0 #
-0.2021109225848854440421575873188 1:0 2:0 3:0 4:0 5:0 6:0 7:1 8:1 9:0 10:0 11:0 12:1 13:0 #
0.010331646570989476072166546316566 1:1 2:0 3:0 4:0 5:1 6:0 7:1 8:1 9:0 10:0 11:0 12:0 13:0 #
0.20274867903151039261189225726412 1:0 2:0 3:0 4:0 5:0 6:0 7:1 8:1 9:0 10:1 11:0 12:0 13:0 #
-0.048025519574679154111152001860319 1:0 2:0 3:0 4:0 5:0 6:0 7:1 8:1 9:0 10:0 11:0 12:0 13:0 #
-0.042262588044404247877849911674275 1:0 2:0 3:0 4:0 5:1 6:0 7:1 8:1 9:0 10:0 11:0 12:0 13:0 #
-0.026887046157230445192487522376723 1:0 2:0 3:0 4:0 5:1 6:1 7:1 8:1 9:0 10:0 11:0 12:1 13:0 #
0.0089135695814932525138374330708757 1:1 2:0 3:0 4:0 5:0 6:0 7:1 8:1 9:0 10:0 11:1 12:1 13:0 #
-0.014891768922605713720841436042974 1:0 2:0 3:0 4:0 5:0 6:0 7:1 8:1 9:0 10:0 11:0 12:0 13:0 #
-0.016325023809714345190968742826954 1:0 2:0 3:0 4:0 5:1 6:1 7:1 8:1 9:0 10:0 11:0 12:0 13:0 #
0.017811197867039996189930661785183 1:1 2:0 3:0 4:0 5:0 6:0 7:1 8:1 9:0 10:0 11:0 12:1 13:0 #
-0.011147285655840888374257247050991 1:0 2:0 3:0 4:0 5:1 6:0 7:1 8:1 9:0 10:0 11:0 12:0 13:0 #
0.0023840602415006184600088090519421 1:0 2:0 3:0 4:0 5:1 6:1 7:1 8:1 9:1 10:1 11:1 12:0 13:0 #
0.00031887822331194692893063802330289 1:0 2:0 3:1 4:0 5:0 6:0 7:0 8:0 9:0 10:1 11:1 12:1 13:0 #
-0.0048427606396928002396862211753614 1:0 2:0 3:0 4:0 5:0 6:1 7:1 8:1 9:0 10:0 11:0 12:1 13:0 #
-0.00040871793417512902735211355320644 1:0 2:0 3:0 4:0 5:0 6:0 7:1 8:1 9:0 10:0 11:0 12:1 13:0 #
-0.0029135730269745146667204060975109 1:0 2:0 3:0 4:0 5:1 6:1 7:1 8:1 9:0 10:0 11:0 12:0 13:0 #
-0.0025469119862521760744300536316587 1:0 2:0 3:0 4:0 5:1 6:0 7:1 8:1 9:0 10:0 11:0 12:0 13:0 #
