SVM-light Version V6.02
0 # kernel type
3 # kernel parameter -d 
1 # kernel parameter -g 
1 # kernel parameter -s 
1 # kernel parameter -r 
empty# kernel parameter -u 
13 # highest feature index 
897 # number of training documents 
160 # number of support vectors plus 1 
0.99988757 # threshold b, each following line is a SV (starting with alpha*y)
-0.015020475275386413471778723760508 1:0 2:0 3:0 4:0 5:0 6:0 7:1 8:1 9:0 10:0 11:0 12:1 13:0 #
-0.20461263285865166627885969319323 1:0 2:0 3:0 4:0 5:1 6:1 7:1 8:1 9:0 10:0 11:0 12:1 13:0 #
-0.20461263285865166627885969319323 1:0 2:0 3:0 4:0 5:1 6:0 7:1 8:1 9:0 10:0 11:0 12:1 13:0 #
-0.20461263285865166627885969319323 1:0 2:0 3:0 4:0 5:1 6:0 7:1 8:1 9:0 10:0 11:1 12:1 13:0 #
-0.20461263285865166627885969319323 1:0 2:0 3:0 4:0 5:0 6:0 7:1 8:1 9:0 10:0 11:1 12:1 13:0 #
0.20461263285865166627885969319323 1:1 2:0 3:0 4:0 5:1 6:1 7:1 8:1 9:0 10:0 11:0 12:1 13:0 #
0.20461263285865166627885969319323 1:1 2:0 3:0 4:0 5:1 6:0 7:1 8:1 9:0 10:0 11:0 12:0 13:0 #
0.0092330016969257855397046341749956 1:1 2:0 3:0 4:0 5:0 6:0 7:1 8:1 9:0 10:0 11:1 12:1 13:0 #
0.20461263285865166627885969319323 1:1 2:0 3:0 4:0 5:0 6:0 7:1 8:1 9:0 10:0 11:0 12:1 13:0 #
-0.071818462795181434166202905089449 1:0 2:0 3:0 4:0 5:0 6:0 7:1 8:1 9:0 10:0 11:0 12:1 13:0 #
-0.20461263285865166627885969319323 1:1 2:0 3:1 4:0 5:1 6:1 7:1 8:1 9:0 10:1 11:1 12:1 13:0 #
-0.20461263285865166627885969319323 1:1 2:0 3:0 4:0 5:1 6:1 7:1 8:1 9:0 10:0 11:0 12:0 13:0 #
-0.20461263285865166627885969319323 1:1 2:0 3:1 4:0 5:0 6:0 7:1 8:1 9:0 10:1 11:0 12:1 13:0 #
-0.20461263285865166627885969319323 1:1 2:1 3:0 4:0 5:1 6:1 7:1 8:1 9:0 10:0 11:0 12:1 13:0 #
0.20461263285865166627885969319323 1:0 2:0 3:0 4:0 5:0 6:0 7:1 8:1 9:0 10:0 11:0 12:1 13:0 #
0.20461263285865166627885969319323 1:0 2:0 3:0 4:0 5:0 6:0 7:1 8:1 9:0 10:0 11:1 12:1 13:0 #
-0.20461263285865166627885969319323 1:1 2:1 3:0 4:0 5:0 6:0 7:1 8:1 9:0 10:0 11:1 12:1 13:0 #
-0.20461263285865166627885969319323 1:0 2:1 3:0 4:1 5:0 6:0 7:1 8:1 9:0 10:1 11:0 12:0 13:0 #
0.20461263285865166627885969319323 1:0 2:0 3:0 4:0 5:1 6:0 7:1 8:1 9:0 10:0 11:1 12:1 13:0 #
0.20461263285865166627885969319323 1:0 2:0 3:0 4:0 5:1 6:1 7:1 8:1 9:0 10:0 11:0 12:1 13:0 #
-0.20461263285865166627885969319323 1:0 2:0 3:0 4:1 5:1 6:1 7:1 8:1 9:0 10:1 11:0 12:0 13:0 #
-0.20461263285865166627885969319323 1:0 2:0 3:0 4:0 5:1 6:1 7:1 8:1 9:0 10:0 11:1 12:1 13:0 #
0.15571889551106021798432266223244 1:0 2:0 3:0 4:0 5:1 6:1 7:1 8:1 9:0 10:1 11:0 12:1 13:0 #
0.18435837624415332691718560909067 1:0 2:0 3:1 4:0 5:1 6:1 7:1 8:1 9:0 10:1 11:1 12:0 13:0 #
-0.20461263285865166627885969319323 1:1 2:0 3:0 4:0 5:0 6:0 7:1 8:1 9:0 10:0 11:0 12:0 13:0 #
-0.20461263285865166627885969319323 1:1 2:0 3:0 4:0 5:0 6:0 7:1 8:1 9:0 10:0 11:0 12:1 13:0 #
-0.20461263285865166627885969319323 1:1 2:0 3:0 4:0 5:1 6:0 7:1 8:1 9:0 10:0 11:0 12:0 13:0 #
0.20461263285865166627885969319323 1:0 2:0 3:0 4:0 5:1 6:1 7:0 8:0 9:0 10:0 11:1 12:1 13:0 #
0.20461263285865166627885969319323 1:0 2:0 3:0 4:0 5:1 6:1 7:1 8:1 9:0 10:0 11:1 12:1 13:0 #
0.20461263285865166627885969319323 1:0 2:0 3:0 4:1 5:1 6:0 7:1 8:1 9:0 10:1 11:1 12:1 13:0 #
-0.20461263285865166627885969319323 1:0 2:0 3:0 4:0 5:1 6:1 7:1 8:1 9:0 10:0 11:1 12:1 13:0 #
0.19692985458645653751297288636124 1:1 2:0 3:0 4:0 5:0 6:0 7:1 8:1 9:0 10:0 11:0 12:0 13:0 #
-0.20461263285865166627885969319323 1:0 2:0 3:0 4:0 5:1 6:1 7:0 8:0 9:0 10:0 11:1 12:0 13:0 #
0.20461263285865166627885969319323 1:1 2:0 3:0 4:0 5:0 6:0 7:1 8:1 9:0 10:0 11:0 12:0 13:0 #
0.20461263285865166627885969319323 1:0 2:0 3:0 4:0 5:0 6:0 7:0 8:0 9:0 10:0 11:0 12:0 13:0 #
0.20461263285865166627885969319323 1:0 2:1 3:0 4:0 5:0 6:1 7:0 8:0 9:0 10:0 11:0 12:0 13:0 #
0.20461263285865166627885969319323 1:0 2:0 3:0 4:0 5:1 6:1 7:1 8:1 9:0 10:0 11:0 12:0 13:0 #
-0.20461263285865166627885969319323 1:0 2:0 3:0 4:0 5:1 6:1 7:1 8:1 9:0 10:0 11:1 12:0 13:0 #
0.20461263285865166627885969319323 1:0 2:1 3:0 4:0 5:1 6:0 7:1 8:1 9:0 10:0 11:0 12:1 13:0 #
-0.20461263285865166627885969319323 1:0 2:0 3:0 4:0 5:0 6:1 7:0 8:0 9:0 10:0 11:0 12:0 13:0 #
0.20461263285865166627885969319323 1:1 2:0 3:0 4:0 5:1 6:1 7:1 8:1 9:0 10:0 11:1 12:1 13:0 #
0.20461263285865166627885969319323 1:0 2:0 3:0 4:1 5:1 6:0 7:1 8:1 9:0 10:1 11:0 12:1 13:0 #
-0.20461263285865166627885969319323 1:0 2:0 3:0 4:0 5:0 6:0 7:1 8:1 9:0 10:0 11:0 12:1 13:0 #
0.20461263285865166627885969319323 1:1 2:0 3:0 4:0 5:1 6:1 7:1 8:1 9:0 10:0 11:0 12:0 13:0 #
-0.20461263285865166627885969319323 1:0 2:0 3:0 4:0 5:1 6:0 7:1 8:1 9:0 10:0 11:0 12:1 13:0 #
0.20461263285865166627885969319323 1:0 2:0 3:0 4:0 5:0 6:0 7:1 8:1 9:0 10:0 11:1 12:1 13:0 #
-0.20461263285865166627885969319323 1:0 2:0 3:0 4:0 5:0 6:0 7:1 8:1 9:0 10:0 11:1 12:0 13:0 #
0.20461263285865166627885969319323 1:1 2:0 3:0 4:0 5:1 6:1 7:1 8:1 9:0 10:0 11:0 12:1 13:0 #
-0.20461263285865166627885969319323 1:1 2:0 3:0 4:0 5:1 6:0 7:1 8:1 9:0 10:0 11:0 12:1 13:0 #
-0.20461263285865166627885969319323 1:0 2:0 3:0 4:0 5:1 6:0 7:1 8:1 9:0 10:0 11:0 12:1 13:0 #
0.20461263285865166627885969319323 1:0 2:0 3:0 4:0 5:0 6:0 7:1 8:1 9:0 10:0 11:0 12:0 13:0 #
-0.20461263285865166627885969319323 1:0 2:1 3:0 4:0 5:1 6:1 7:1 8:1 9:0 10:0 11:0 12:0 13:0 #
-0.20461263285865166627885969319323 1:0 2:0 3:0 4:0 5:0 6:0 7:1 8:1 9:0 10:0 11:0 12:0 13:0 #
0.20461263285865166627885969319323 1:1 2:0 3:0 4:0 5:1 6:1 7:1 8:1 9:0 10:0 11:1 12:1 13:0 #
-0.20461263285865166627885969319323 1:1 2:0 3:0 4:0 5:1 6:0 7:1 8:1 9:0 10:0 11:1 12:1 13:0 #
-0.20461263285865166627885969319323 1:0 2:0 3:0 4:0 5:0 6:0 7:0 8:0 9:0 10:0 11:1 12:1 13:0 #
0.20461263285865166627885969319323 1:0 2:0 3:0 4:0 5:0 6:0 7:1 8:1 9:0 10:0 11:0 12:0 13:0 #
-0.20461263285865166627885969319323 1:0 2:0 3:0 4:0 5:0 6:1 7:1 8:1 9:0 10:0 11:0 12:1 13:0 #
0.20461263285865166627885969319323 1:0 2:0 3:0 4:0 5:1 6:1 7:1 8:1 9:0 10:0 11:0 12:0 13:0 #
0.20461263285865166627885969319323 1:1 2:0 3:0 4:0 5:1 6:1 7:1 8:1 9:0 10:0 11:0 12:0 13:0 #
-0.20461263285865166627885969319323 1:0 2:0 3:0 4:0 5:1 6:1 7:0 8:0 9:0 10:0 11:0 12:0 13:0 #
0.20461263285865166627885969319323 1:1 2:0 3:0 4:0 5:0 6:0 7:1 8:1 9:0 10:0 11:1 12:1 13:0 #
0.20461263285865166627885969319323 1:0 2:0 3:0 4:0 5:1 6:1 7:1 8:1 9:0 10:0 11:0 12:1 13:0 #
0.20461263285865166627885969319323 1:0 2:0 3:0 4:0 5:1 6:0 7:1 8:1 9:0 10:0 11:1 12:1 13:0 #
-0.20461263285865166627885969319323 1:1 2:0 3:0 4:0 5:1 6:0 7:1 8:1 9:0 10:0 11:1 12:0 13:0 #
-0.20461263285865166627885969319323 1:0 2:0 3:0 4:0 5:1 6:1 7:1 8:1 9:0 10:0 11:1 12:1 13:0 #
0.20461263285865166627885969319323 1:0 2:0 3:1 4:0 5:0 6:0 7:0 8:0 9:0 10:1 11:1 12:1 13:0 #
0.20461263285865166627885969319323 1:0 2:0 3:0 4:0 5:0 6:0 7:0 8:0 9:0 10:1 11:0 12:0 13:0 #
0.20461263285865166627885969319323 1:0 2:0 3:0 4:0 5:0 6:0 7:1 8:1 9:0 10:0 11:0 12:0 13:0 #
-0.20461263285865166627885969319323 1:0 2:0 3:0 4:0 5:0 6:0 7:1 8:1 9:0 10:0 11:0 12:1 13:0 #
0.20461263285865166627885969319323 1:1 2:0 3:0 4:0 5:1 6:1 7:1 8:1 9:0 10:0 11:1 12:1 13:0 #
-0.20461263285865166627885969319323 1:1 2:0 3:0 4:0 5:0 6:0 7:1 8:1 9:0 10:0 11:0 12:0 13:0 #
-0.20461263285865166627885969319323 1:0 2:0 3:0 4:0 5:0 6:0 7:1 8:1 9:0 10:0 11:1 12:0 13:0 #
0.20461263285865166627885969319323 1:0 2:0 3:0 4:0 5:1 6:1 7:1 8:1 9:0 10:0 11:0 12:1 13:0 #
0.20461263285865166627885969319323 1:0 2:0 3:0 4:0 5:1 6:0 7:1 8:1 9:0 10:0 11:1 12:1 13:0 #
-0.20461263285865166627885969319323 1:0 2:0 3:0 4:0 5:1 6:1 7:1 8:1 9:0 10:0 11:1 12:1 13:0 #
-0.20461263285865166627885969319323 1:0 2:0 3:0 4:0 5:1 6:1 7:1 8:1 9:0 10:0 11:0 12:1 13:0 #
0.20082822553231807760631966175424 1:1 2:0 3:0 4:0 5:0 6:0 7:1 8:1 9:0 10:0 11:0 12:0 13:0 #
-0.20396340563922427113752178229333 1:0 2:0 3:0 4:0 5:0 6:0 7:0 8:0 9:0 10:0 11:1 12:1 13:0 #
0.20461263285865166627885969319323 1:0 2:0 3:0 4:0 5:1 6:1 7:1 8:1 9:0 10:0 11:0 12:0 13:0 #
-0.20461263285865166627885969319323 1:0 2:0 3:0 4:0 5:1 6:1 7:1 8:1 9:0 10:0 11:0 12:0 13:0 #
0.20461263285865166627885969319323 1:1 2:0 3:0 4:0 5:0 6:0 7:1 8:1 9:0 10:0 11:1 12:1 13:0 #
0.20461263285865166627885969319323 1:1 2:0 3:0 4:0 5:0 6:0 7:1 8:1 9:0 10:0 11:1 12:0 13:0 #
-0.20461263285865166627885969319323 1:1 2:0 3:0 4:0 5:1 6:0 7:1 8:1 9:0 10:0 11:0 12:0 13:0 #
0.20461263285865166627885969319323 1:0 2:0 3:0 4:0 5:1 6:0 7:1 8:1 9:0 10:0 11:1 12:1 13:0 #
0.20461263285865166627885969319323 1:0 2:0 3:0 4:0 5:0 6:0 7:1 8:1 9:0 10:0 11:0 12:0 13:0 #
-0.20461263285865166627885969319323 1:0 2:0 3:0 4:0 5:0 6:0 7:1 8:1 9:0 10:0 11:1 12:1 13:0 #
0.20129499326159980276962357947923 1:1 2:0 3:0 4:0 5:1 6:0 7:1 8:1 9:0 10:0 11:0 12:0 13:0 #
-0.20461263285865166627885969319323 1:1 2:0 3:0 4:0 5:1 6:0 7:1 8:1 9:0 10:0 11:0 12:0 13:0 #
-0.20461263285865166627885969319323 1:1 2:0 3:0 4:0 5:1 6:0 7:1 8:1 9:0 10:0 11:0 12:0 13:0 #
0.20461263285865166627885969319323 1:0 2:0 3:0 4:0 5:0 6:0 7:1 8:1 9:0 10:0 11:0 12:0 13:0 #
-0.20461263285865166627885969319323 1:0 2:0 3:0 4:0 5:0 6:1 7:1 8:1 9:0 10:0 11:0 12:0 13:0 #
-0.20461263285865166627885969319323 1:0 2:0 3:0 4:0 5:0 6:0 7:1 8:1 9:0 10:0 11:0 12:1 13:0 #
0.20461263285865166627885969319323 1:1 2:0 3:0 4:0 5:1 6:0 7:1 8:1 9:0 10:0 11:1 12:0 13:0 #
0.20461263285865166627885969319323 1:1 2:0 3:0 4:0 5:1 6:0 7:1 8:1 9:0 10:0 11:0 12:0 13:0 #
-0.20461263285865166627885969319323 1:1 2:0 3:0 4:0 5:1 6:0 7:1 8:1 9:0 10:0 11:0 12:0 13:0 #
-0.20461263285865166627885969319323 1:0 2:0 3:0 4:0 5:1 6:1 7:1 8:1 9:0 10:0 11:1 12:0 13:0 #
0.20461263285865166627885969319323 1:0 2:0 3:0 4:0 5:0 6:0 7:1 8:1 9:0 10:0 11:0 12:1 13:0 #
-0.19726300873694979642891667026561 1:0 2:0 3:0 4:0 5:0 6:0 7:1 8:1 9:0 10:0 11:1 12:1 13:0 #
-0.20461263285865166627885969319323 1:1 2:0 3:0 4:0 5:1 6:0 7:1 8:1 9:0 10:0 11:0 12:0 13:0 #
-0.20461263285865166627885969319323 1:0 2:0 3:0 4:0 5:1 6:0 7:1 8:1 9:0 10:0 11:1 12:1 13:0 #
-0.20461263285865166627885969319323 1:0 2:0 3:0 4:0 5:0 6:0 7:1 8:1 9:0 10:0 11:1 12:0 13:0 #
0.20461263285865166627885969319323 1:0 2:0 3:0 4:0 5:0 6:0 7:1 8:1 9:0 10:0 11:0 12:1 13:0 #
0.20461263285865166627885969319323 1:0 2:0 3:0 4:0 5:0 6:0 7:1 8:1 9:0 10:0 11:0 12:0 13:0 #
0.20461263285865166627885969319323 1:1 2:0 3:0 4:0 5:1 6:1 7:1 8:1 9:0 10:0 11:0 12:1 13:0 #
-0.20461263285865166627885969319323 1:0 2:0 3:0 4:0 5:1 6:1 7:1 8:1 9:0 10:0 11:0 12:1 13:0 #
0.20461263285865166627885969319323 1:1 2:0 3:0 4:0 5:1 6:0 7:1 8:1 9:0 10:0 11:1 12:1 13:0 #
-0.20461263285865166627885969319323 1:1 2:0 3:0 4:0 5:1 6:0 7:1 8:1 9:0 10:0 11:0 12:0 13:0 #
-0.20461263285865166627885969319323 1:0 2:0 3:0 4:0 5:0 6:0 7:1 8:1 9:0 10:0 11:1 12:1 13:0 #
0.20461263285865166627885969319323 1:0 2:1 3:0 4:0 5:1 6:1 7:1 8:1 9:0 10:0 11:1 12:1 13:0 #
0.20461263285865166627885969319323 1:0 2:0 3:0 4:0 5:0 6:0 7:1 8:1 9:0 10:0 11:0 12:0 13:0 #
0.20461263285865166627885969319323 1:1 2:0 3:0 4:0 5:1 6:1 7:1 8:1 9:0 10:0 11:0 12:0 13:0 #
-0.20461263285865166627885969319323 1:0 2:0 3:0 4:0 5:0 6:1 7:1 8:1 9:0 10:0 11:0 12:0 13:0 #
-0.20461263285865166627885969319323 1:0 2:0 3:0 4:0 5:1 6:1 7:1 8:1 9:0 10:0 11:0 12:1 13:0 #
0.20461263285865166627885969319323 1:0 2:0 3:0 4:0 5:0 6:0 7:1 8:1 9:0 10:0 11:0 12:0 13:0 #
-0.20461263285865166627885969319323 1:0 2:0 3:0 4:0 5:0 6:0 7:1 8:1 9:0 10:0 11:0 12:0 13:0 #
0.20461263285865166627885969319323 1:1 2:0 3:0 4:0 5:0 6:0 7:1 8:1 9:0 10:0 11:0 12:0 13:0 #
0.20461263285865166627885969319323 1:1 2:0 3:0 4:0 5:1 6:1 7:1 8:1 9:0 10:0 11:1 12:1 13:0 #
0.20461263285865166627885969319323 1:0 2:1 3:0 4:0 5:1 6:1 7:1 8:1 9:0 10:0 11:0 12:1 13:0 #
-0.20461263285865166627885969319323 1:0 2:0 3:0 4:0 5:0 6:0 7:1 8:1 9:0 10:0 11:1 12:1 13:0 #
-0.20461263285865166627885969319323 1:0 2:0 3:0 4:0 5:1 6:1 7:1 8:1 9:0 10:0 11:0 12:1 13:0 #
-0.20461263285865166627885969319323 1:0 2:0 3:0 4:0 5:0 6:0 7:1 8:1 9:0 10:0 11:0 12:0 13:0 #
-0.20461263285865166627885969319323 1:0 2:0 3:0 4:0 5:1 6:1 7:1 8:1 9:0 10:0 11:0 12:1 13:0 #
0.20461263285865166627885969319323 1:0 2:0 3:0 4:0 5:0 6:0 7:1 8:1 9:0 10:1 11:0 12:0 13:0 #
-0.13331023750443285469380327867839 1:0 2:0 3:0 4:0 5:0 6:0 7:1 8:1 9:0 10:0 11:1 12:0 13:0 #
-0.20461263285865166627885969319323 1:0 2:0 3:0 4:0 5:1 6:1 7:1 8:1 9:0 10:0 11:0 12:1 13:0 #
0.20461263285865166627885969319323 1:0 2:0 3:0 4:0 5:1 6:1 7:1 8:1 9:0 10:1 11:1 12:0 13:0 #
0.20461263285865166627885969319323 1:1 2:0 3:0 4:0 5:0 6:0 7:1 8:1 9:0 10:0 11:1 12:0 13:0 #
0.020967995089338570952053331097886 1:0 2:0 3:1 4:0 5:0 6:0 7:1 8:1 9:0 10:1 11:1 12:1 13:0 #
-0.20461263285865166627885969319323 1:0 2:0 3:0 4:0 5:0 6:0 7:1 8:1 9:0 10:0 11:1 12:0 13:0 #
0.20461263285865166627885969319323 1:1 2:0 3:0 4:0 5:1 6:1 7:1 8:1 9:0 10:0 11:0 12:1 13:0 #
-0.20461263285865166627885969319323 1:0 2:0 3:0 4:0 5:1 6:1 7:1 8:1 9:0 10:0 11:0 12:1 13:0 #
0.20461263285865166627885969319323 1:0 2:0 3:0 4:0 5:0 6:0 7:1 8:1 9:0 10:1 11:1 12:1 13:0 #
-0.20461263285865166627885969319323 1:0 2:0 3:0 4:0 5:0 6:0 7:1 8:1 9:0 10:0 11:1 12:1 13:0 #
0.20461263285865166627885969319323 1:0 2:0 3:0 4:0 5:1 6:1 7:1 8:1 9:0 10:1 11:0 12:0 13:0 #
-0.20461263285865166627885969319323 1:0 2:0 3:0 4:0 5:1 6:1 7:1 8:1 9:0 10:0 11:0 12:0 13:0 #
-0.20461263285865166627885969319323 1:0 2:0 3:0 4:0 5:0 6:0 7:1 8:1 9:0 10:0 11:0 12:1 13:0 #
0.20461263285865166627885969319323 1:1 2:0 3:0 4:0 5:1 6:1 7:1 8:1 9:0 10:0 11:1 12:1 13:0 #
-0.20461263285865166627885969319323 1:0 2:0 3:0 4:0 5:1 6:1 7:1 8:1 9:0 10:0 11:1 12:0 13:0 #
0.20461263285865166627885969319323 1:0 2:0 3:0 4:0 5:0 6:0 7:1 8:1 9:0 10:1 11:0 12:0 13:0 #
0.20461263285865166627885969319323 1:0 2:0 3:0 4:0 5:1 6:1 7:1 8:1 9:0 10:1 11:0 12:1 13:0 #
0.20461263285865166627885969319323 1:1 2:0 3:0 4:0 5:0 6:0 7:1 8:1 9:0 10:0 11:1 12:1 13:0 #
0.20461263285865166627885969319323 1:0 2:0 3:0 4:0 5:1 6:1 7:1 8:1 9:0 10:1 11:0 12:1 13:0 #
-0.024775544706410412842956247914117 1:0 2:0 3:0 4:0 5:1 6:0 7:1 8:1 9:0 10:0 11:0 12:1 13:0 #
0.11391228261833274970626916910987 1:1 2:0 3:0 4:0 5:1 6:0 7:1 8:1 9:0 10:0 11:1 12:1 13:0 #
-0.087013942148462142256448714761063 1:0 2:0 3:0 4:0 5:1 6:0 7:1 8:1 9:0 10:0 11:0 12:0 13:0 #
-0.11961080635953735828991284506628 1:0 2:0 3:0 4:0 5:1 6:1 7:1 8:1 9:0 10:0 11:0 12:1 13:0 #
0.0067432182176574359533383073994628 1:1 2:0 3:0 4:0 5:1 6:0 7:1 8:1 9:0 10:0 11:0 12:0 13:0 #
-0.055493068411820528629263549191819 1:0 2:0 3:0 4:0 5:0 6:0 7:1 8:1 9:0 10:0 11:0 12:1 13:0 #
-0.15201195472831827149029493284615 1:0 2:0 3:0 4:0 5:1 6:1 7:1 8:1 9:0 10:0 11:0 12:1 13:0 #
0.20461263285865166627885969319323 1:0 2:0 3:0 4:0 5:1 6:1 7:1 8:1 9:0 10:1 11:0 12:1 13:0 #
-0.067479702993577139746861348612583 1:0 2:0 3:0 4:0 5:1 6:1 7:1 8:1 9:0 10:0 11:0 12:1 13:0 #
0.00084840052440607414269146957508383 1:0 2:0 3:0 4:0 5:0 6:0 7:1 8:1 9:1 10:1 11:1 12:0 13:0 #
0.00035686923742107184466532121547289 1:0 2:1 3:0 4:1 5:0 6:0 7:1 8:1 9:0 10:1 11:1 12:1 13:0 #
0.043740906056903797183288418182201 1:1 2:0 3:0 4:0 5:0 6:0 7:1 8:1 9:0 10:0 11:0 12:0 13:0 #
-0.0028814773966918394432212835454266 1:0 2:0 3:0 4:0 5:1 6:0 7:1 8:1 9:0 10:0 11:0 12:1 13:0 #
-0.0026668969873728798347656265832484 1:0 2:0 3:0 4:0 5:1 6:0 7:1 8:1 9:0 10:0 11:0 12:1 13:0 #
-0.00090747664899820115139844611817921 1:0 2:0 3:0 4:0 5:1 6:1 7:1 8:1 9:0 10:0 11:0 12:1 13:0 #
-0.00071655824420976954591822050133487 1:0 2:0 3:0 4:0 5:0 6:0 7:0 8:0 9:0 10:0 11:0 12:0 13:0 #
