SVM-light Version V6.02
0 # kernel type
3 # kernel parameter -d 
1 # kernel parameter -g 
1 # kernel parameter -s 
1 # kernel parameter -r 
empty# kernel parameter -u 
13 # highest feature index 
897 # number of training documents 
161 # number of support vectors plus 1 
1.000117 # threshold b, each following line is a SV (starting with alpha*y)
-0.20591444367437031215395393246581 1:0 2:0 3:0 4:0 5:0 6:0 7:1 8:1 9:0 10:0 11:0 12:0 13:0 #
-0.20591444367437031215395393246581 1:0 2:0 3:0 4:0 5:1 6:1 7:1 8:1 9:0 10:0 11:0 12:1 13:0 #
0.20559990129097616140541049389867 1:1 2:0 3:0 4:0 5:0 6:0 7:1 8:1 9:0 10:0 11:0 12:1 13:0 #
0.20591444367437031215395393246581 1:1 2:0 3:0 4:0 5:1 6:0 7:1 8:1 9:0 10:0 11:0 12:0 13:0 #
0.20591444367437031215395393246581 1:1 2:0 3:0 4:0 5:1 6:1 7:1 8:1 9:0 10:0 11:0 12:0 13:0 #
0.20591444367437031215395393246581 1:1 2:0 3:0 4:0 5:1 6:1 7:1 8:1 9:0 10:0 11:0 12:0 13:0 #
-0.20591444367437031215395393246581 1:1 2:0 3:1 4:0 5:1 6:1 7:1 8:1 9:0 10:1 11:1 12:1 13:0 #
-0.20591444367437031215395393246581 1:1 2:0 3:0 4:0 5:1 6:0 7:1 8:1 9:0 10:0 11:0 12:1 13:0 #
0.20591444367437031215395393246581 1:0 2:0 3:0 4:0 5:1 6:1 7:1 8:1 9:0 10:0 11:0 12:0 13:0 #
-0.20591444367437031215395393246581 1:0 2:0 3:0 4:1 5:1 6:1 7:1 8:1 9:0 10:1 11:0 12:0 13:0 #
-0.20591444367437031215395393246581 1:0 2:0 3:0 4:0 5:1 6:1 7:0 8:0 9:0 10:0 11:1 12:0 13:0 #
-0.20591444367437031215395393246581 1:1 2:1 3:0 4:0 5:1 6:1 7:1 8:1 9:0 10:0 11:0 12:1 13:0 #
-0.20591444367437031215395393246581 1:1 2:0 3:0 4:0 5:1 6:0 7:1 8:1 9:0 10:0 11:0 12:0 13:0 #
0.20591444367437031215395393246581 1:0 2:0 3:0 4:0 5:0 6:0 7:1 8:1 9:0 10:0 11:1 12:1 13:0 #
0.20027294320453126186265535579878 1:0 2:0 3:1 4:0 5:0 6:0 7:1 8:1 9:0 10:1 11:1 12:1 13:0 #
0.20591444367437031215395393246581 1:0 2:0 3:0 4:0 5:0 6:0 7:1 8:1 9:0 10:1 11:1 12:1 13:0 #
-0.20591444367437031215395393246581 1:0 2:0 3:0 4:0 5:0 6:0 7:1 8:1 9:0 10:0 11:1 12:1 13:0 #
0.20591444367437031215395393246581 1:1 2:0 3:0 4:0 5:0 6:0 7:1 8:1 9:0 10:0 11:0 12:1 13:0 #
-0.20591444367437031215395393246581 1:1 2:0 3:1 4:0 5:0 6:0 7:1 8:1 9:0 10:1 11:0 12:1 13:0 #
-0.20591444367437031215395393246581 1:1 2:1 3:0 4:0 5:0 6:0 7:1 8:1 9:0 10:0 11:1 12:1 13:0 #
-0.20591444367437031215395393246581 1:0 2:1 3:0 4:1 5:0 6:0 7:1 8:1 9:0 10:1 11:0 12:0 13:0 #
-0.20591444367437031215395393246581 1:0 2:0 3:0 4:0 5:0 6:0 7:1 8:1 9:0 10:0 11:1 12:1 13:0 #
0.20591444367437031215395393246581 1:0 2:0 3:0 4:0 5:1 6:1 7:1 8:1 9:0 10:0 11:0 12:0 13:0 #
0.20591444367437031215395393246581 1:1 2:0 3:0 4:0 5:1 6:1 7:1 8:1 9:0 10:0 11:0 12:0 13:0 #
-0.20591444367437031215395393246581 1:0 2:0 3:0 4:0 5:0 6:1 7:1 8:1 9:0 10:0 11:0 12:0 13:0 #
-0.20591444367437031215395393246581 1:0 2:0 3:0 4:0 5:1 6:1 7:1 8:1 9:0 10:0 11:0 12:0 13:0 #
0.20591444367437031215395393246581 1:0 2:0 3:0 4:0 5:0 6:0 7:1 8:1 9:0 10:0 11:0 12:1 13:0 #
0.20591444367437031215395393246581 1:0 2:0 3:0 4:1 5:1 6:0 7:1 8:1 9:0 10:1 11:1 12:1 13:0 #
-0.20591444367437031215395393246581 1:0 2:0 3:0 4:0 5:1 6:0 7:1 8:1 9:0 10:0 11:1 12:1 13:0 #
0.20591444367437031215395393246581 1:0 2:1 3:0 4:0 5:0 6:1 7:0 8:0 9:0 10:0 11:0 12:0 13:0 #
-0.20591444367437031215395393246581 1:0 2:0 3:0 4:0 5:0 6:0 7:0 8:0 9:0 10:0 11:1 12:1 13:0 #
0.20591444367437031215395393246581 1:1 2:0 3:0 4:0 5:1 6:1 7:1 8:1 9:0 10:0 11:0 12:0 13:0 #
-0.20591444367437031215395393246581 1:1 2:0 3:0 4:0 5:1 6:0 7:1 8:1 9:0 10:0 11:1 12:1 13:0 #
-0.20591444367437031215395393246581 1:1 2:0 3:0 4:0 5:1 6:0 7:1 8:1 9:0 10:0 11:1 12:0 13:0 #
0.20591444367437031215395393246581 1:0 2:0 3:0 4:0 5:1 6:0 7:1 8:1 9:0 10:0 11:1 12:1 13:0 #
0.20591444367437031215395393246581 1:0 2:0 3:0 4:0 5:0 6:0 7:1 8:1 9:0 10:0 11:0 12:0 13:0 #
-0.20591444367437031215395393246581 1:0 2:1 3:0 4:0 5:0 6:0 7:1 8:1 9:0 10:0 11:0 12:0 13:0 #
0.20591444367437031215395393246581 1:0 2:0 3:0 4:0 5:1 6:1 7:1 8:1 9:0 10:0 11:1 12:1 13:0 #
0.20591444367437031215395393246581 1:1 2:0 3:0 4:0 5:1 6:1 7:1 8:1 9:0 10:0 11:1 12:1 13:0 #
-0.20591444367437031215395393246581 1:0 2:0 3:0 4:0 5:1 6:1 7:1 8:1 9:0 10:0 11:1 12:1 13:0 #
0.20591444367437031215395393246581 1:0 2:0 3:0 4:0 5:0 6:0 7:0 8:0 9:0 10:0 11:0 12:0 13:0 #
0.20591444367437031215395393246581 1:0 2:0 3:0 4:0 5:1 6:1 7:1 8:1 9:0 10:1 11:0 12:0 13:0 #
-0.20591444367437031215395393246581 1:0 2:0 3:0 4:0 5:1 6:1 7:0 8:0 9:0 10:0 11:0 12:0 13:0 #
-0.20591444367437031215395393246581 1:1 2:0 3:0 4:0 5:0 6:0 7:1 8:1 9:0 10:0 11:0 12:1 13:0 #
-0.20591444367437031215395393246581 1:0 2:0 3:0 4:0 5:1 6:1 7:1 8:1 9:0 10:0 11:0 12:0 13:0 #
0.0072308714068776147598782699787989 1:1 2:0 3:0 4:0 5:1 6:1 7:1 8:1 9:0 10:0 11:1 12:1 13:0 #
-0.20591444367437031215395393246581 1:0 2:0 3:0 4:0 5:0 6:0 7:1 8:1 9:0 10:0 11:1 12:0 13:0 #
0.20591444367437031215395393246581 1:0 2:0 3:0 4:0 5:1 6:1 7:1 8:1 9:0 10:0 11:0 12:1 13:0 #
0.20591444367437031215395393246581 1:1 2:0 3:0 4:0 5:1 6:1 7:1 8:1 9:0 10:0 11:0 12:1 13:0 #
-0.20591444367437031215395393246581 1:0 2:0 3:0 4:0 5:1 6:1 7:1 8:1 9:0 10:0 11:1 12:1 13:0 #
0.20591444367437031215395393246581 1:0 2:0 3:0 4:0 5:0 6:0 7:1 8:1 9:0 10:0 11:0 12:0 13:0 #
-0.20591444367437031215395393246581 1:0 2:0 3:0 4:0 5:0 6:0 7:1 8:1 9:0 10:0 11:0 12:0 13:0 #
0.20591444367437031215395393246581 1:0 2:0 3:0 4:0 5:1 6:1 7:0 8:0 9:0 10:0 11:1 12:1 13:0 #
-0.20591444367437031215395393246581 1:0 2:0 3:0 4:0 5:1 6:1 7:1 8:1 9:0 10:0 11:0 12:0 13:0 #
0.20591444367437031215395393246581 1:0 2:0 3:0 4:0 5:0 6:0 7:1 8:1 9:0 10:0 11:0 12:0 13:0 #
0.20591444367437031215395393246581 1:0 2:0 3:0 4:0 5:0 6:0 7:1 8:1 9:0 10:0 11:0 12:1 13:0 #
-0.20591444367437031215395393246581 1:0 2:0 3:0 4:0 5:0 6:0 7:0 8:0 9:0 10:0 11:0 12:0 13:0 #
0.20591444367437031215395393246581 1:1 2:0 3:0 4:0 5:0 6:0 7:1 8:1 9:0 10:0 11:0 12:1 13:0 #
0.20591444367437031215395393246581 1:0 2:0 3:0 4:0 5:0 6:1 7:0 8:0 9:0 10:0 11:0 12:0 13:0 #
-0.190083899169121939287663280993 1:0 2:0 3:0 4:0 5:1 6:1 7:1 8:1 9:0 10:0 11:1 12:1 13:0 #
-0.20591444367437031215395393246581 1:0 2:0 3:0 4:0 5:0 6:1 7:1 8:1 9:0 10:0 11:0 12:0 13:0 #
-0.20591444367437031215395393246581 1:0 2:0 3:0 4:0 5:1 6:1 7:1 8:1 9:0 10:0 11:0 12:0 13:0 #
0.20591444367437031215395393246581 1:0 2:0 3:0 4:0 5:1 6:0 7:1 8:1 9:0 10:0 11:1 12:1 13:0 #
0.20591444367437031215395393246581 1:0 2:0 3:0 4:0 5:1 6:1 7:1 8:1 9:0 10:0 11:1 12:1 13:0 #
-0.20591444367437031215395393246581 1:1 2:0 3:0 4:0 5:0 6:0 7:1 8:1 9:0 10:0 11:0 12:0 13:0 #
-0.20591444367437031215395393246581 1:1 2:0 3:0 4:0 5:1 6:0 7:1 8:1 9:0 10:0 11:0 12:0 13:0 #
0.20591444367437031215395393246581 1:0 2:1 3:0 4:0 5:0 6:1 7:0 8:0 9:0 10:0 11:0 12:0 13:0 #
0.20591444367437031215395393246581 1:0 2:0 3:0 4:0 5:1 6:1 7:1 8:1 9:0 10:0 11:0 12:0 13:0 #
0.20591444367437031215395393246581 1:0 2:0 3:0 4:0 5:0 6:0 7:1 8:1 9:0 10:0 11:0 12:0 13:0 #
-0.20591444367437031215395393246581 1:0 2:0 3:0 4:0 5:0 6:1 7:1 8:1 9:0 10:0 11:0 12:1 13:0 #
-0.20591444367437031215395393246581 1:0 2:0 3:0 4:0 5:1 6:1 7:1 8:1 9:0 10:0 11:1 12:1 13:0 #
-0.20591444367437031215395393246581 1:0 2:0 3:0 4:0 5:1 6:1 7:1 8:1 9:0 10:0 11:0 12:1 13:0 #
0.20591444367437031215395393246581 1:1 2:0 3:0 4:0 5:1 6:0 7:1 8:1 9:0 10:0 11:0 12:0 13:0 #
-0.20591444367437031215395393246581 1:0 2:0 3:0 4:0 5:1 6:1 7:1 8:1 9:0 10:0 11:0 12:0 13:0 #
-0.20591444367437031215395393246581 1:0 2:0 3:0 4:0 5:0 6:0 7:1 8:1 9:0 10:0 11:1 12:1 13:0 #
0.20591444367437031215395393246581 1:0 2:0 3:0 4:0 5:1 6:1 7:1 8:1 9:0 10:0 11:0 12:1 13:0 #
-0.20591444367437031215395393246581 1:0 2:0 3:0 4:0 5:1 6:1 7:1 8:1 9:0 10:0 11:0 12:1 13:0 #
0.20591444367437031215395393246581 1:0 2:0 3:0 4:0 5:0 6:0 7:1 8:1 9:0 10:0 11:1 12:1 13:0 #
-0.20591444367437031215395393246581 1:1 2:0 3:0 4:0 5:0 6:0 7:1 8:1 9:0 10:0 11:0 12:0 13:0 #
-0.20591444367437031215395393246581 1:0 2:0 3:0 4:0 5:0 6:0 7:1 8:1 9:0 10:0 11:1 12:1 13:0 #
0.20591444367437031215395393246581 1:0 2:1 3:0 4:0 5:1 6:1 7:1 8:1 9:0 10:0 11:0 12:0 13:0 #
0.20591444367437031215395393246581 1:1 2:0 3:0 4:0 5:0 6:0 7:1 8:1 9:0 10:0 11:1 12:1 13:0 #
-0.20591444367437031215395393246581 1:0 2:0 3:0 4:0 5:1 6:1 7:1 8:1 9:0 10:0 11:0 12:0 13:0 #
0.20591444367437031215395393246581 1:1 2:0 3:0 4:0 5:0 6:0 7:1 8:1 9:0 10:0 11:0 12:1 13:0 #
-0.20591444367437031215395393246581 1:0 2:0 3:0 4:0 5:0 6:0 7:1 8:1 9:0 10:0 11:0 12:1 13:0 #
-0.20591444367437031215395393246581 1:0 2:0 3:0 4:0 5:0 6:0 7:1 8:1 9:0 10:0 11:1 12:1 13:0 #
0.20591444367437031215395393246581 1:0 2:0 3:0 4:0 5:0 6:0 7:1 8:1 9:0 10:0 11:0 12:0 13:0 #
0.20591444367437031215395393246581 1:1 2:0 3:0 4:0 5:1 6:1 7:1 8:1 9:0 10:0 11:0 12:0 13:0 #
-0.20591444367437031215395393246581 1:1 2:0 3:0 4:0 5:1 6:0 7:1 8:1 9:0 10:0 11:0 12:0 13:0 #
0.20591444367437031215395393246581 1:0 2:0 3:0 4:0 5:1 6:0 7:1 8:1 9:0 10:0 11:1 12:1 13:0 #
-0.20591444367437031215395393246581 1:0 2:0 3:0 4:0 5:1 6:1 7:1 8:1 9:0 10:0 11:0 12:0 13:0 #
0.20591444367437031215395393246581 1:0 2:0 3:0 4:0 5:0 6:0 7:1 8:1 9:0 10:0 11:0 12:0 13:0 #
-0.20591444367437031215395393246581 1:1 2:0 3:0 4:0 5:1 6:0 7:1 8:1 9:0 10:0 11:0 12:0 13:0 #
0.20591444367437031215395393246581 1:0 2:0 3:0 4:0 5:1 6:1 7:1 8:1 9:0 10:0 11:0 12:1 13:0 #
0.20591444367437031215395393246581 1:0 2:0 3:0 4:0 5:1 6:0 7:1 8:1 9:0 10:0 11:1 12:1 13:0 #
0.20591444367437031215395393246581 1:1 2:0 3:0 4:0 5:1 6:0 7:1 8:1 9:0 10:0 11:0 12:0 13:0 #
-0.20591444367437031215395393246581 1:1 2:0 3:0 4:0 5:1 6:0 7:1 8:1 9:0 10:0 11:0 12:0 13:0 #
-0.20591444367437031215395393246581 1:0 2:0 3:0 4:0 5:1 6:1 7:1 8:1 9:0 10:0 11:0 12:1 13:0 #
0.039650153761349948844383561663562 1:1 2:0 3:0 4:0 5:1 6:0 7:1 8:1 9:0 10:0 11:1 12:0 13:0 #
0.20591444367437031215395393246581 1:1 2:0 3:0 4:0 5:0 6:0 7:1 8:1 9:0 10:0 11:0 12:0 13:0 #
-0.20591444367437031215395393246581 1:1 2:0 3:0 4:0 5:0 6:0 7:1 8:1 9:0 10:0 11:0 12:0 13:0 #
-0.20591444367437031215395393246581 1:0 2:0 3:0 4:0 5:0 6:0 7:1 8:1 9:0 10:0 11:1 12:0 13:0 #
0.20591444367437031215395393246581 1:0 2:0 3:0 4:0 5:0 6:0 7:1 8:1 9:0 10:1 11:0 12:0 13:0 #
0.20591444367437031215395393246581 1:1 2:0 3:0 4:0 5:0 6:0 7:1 8:1 9:0 10:0 11:1 12:0 13:0 #
-0.20591444367437031215395393246581 1:1 2:0 3:0 4:0 5:1 6:0 7:1 8:1 9:0 10:0 11:0 12:0 13:0 #
-0.20591444367437031215395393246581 1:0 2:0 3:0 4:0 5:1 6:0 7:1 8:1 9:0 10:0 11:0 12:0 13:0 #
0.20591444367437031215395393246581 1:0 2:1 3:0 4:0 5:1 6:1 7:1 8:1 9:0 10:0 11:1 12:1 13:0 #
0.20591444367437031215395393246581 1:0 2:1 3:0 4:0 5:1 6:0 7:1 8:1 9:0 10:0 11:0 12:1 13:0 #
-0.012385898230350855797610165609512 1:0 2:0 3:0 4:0 5:1 6:0 7:1 8:1 9:0 10:0 11:0 12:1 13:0 #
-0.20591444367437031215395393246581 1:0 2:0 3:0 4:0 5:1 6:1 7:1 8:1 9:0 10:0 11:1 12:1 13:0 #
-0.20591444367437031215395393246581 1:0 2:0 3:0 4:0 5:1 6:1 7:1 8:1 9:0 10:0 11:0 12:1 13:0 #
0.20591444367437031215395393246581 1:1 2:0 3:0 4:0 5:0 6:0 7:1 8:1 9:0 10:0 11:0 12:0 13:0 #
-0.20591444367437031215395393246581 1:0 2:0 3:0 4:0 5:0 6:0 7:0 8:0 9:0 10:0 11:0 12:0 13:0 #
-0.20591444367437031215395393246581 1:0 2:0 3:0 4:0 5:0 6:0 7:1 8:1 9:0 10:0 11:0 12:0 13:0 #
0.20591444367437031215395393246581 1:0 2:0 3:0 4:0 5:1 6:1 7:1 8:1 9:0 10:1 11:0 12:1 13:0 #
0.20591444367437031215395393246581 1:0 2:0 3:0 4:0 5:1 6:1 7:1 8:1 9:0 10:1 11:1 12:1 13:0 #
0.20591444367437031215395393246581 1:1 2:0 3:0 4:0 5:0 6:0 7:1 8:1 9:0 10:0 11:0 12:0 13:0 #
-0.20591444367437031215395393246581 1:0 2:0 3:0 4:0 5:1 6:1 7:1 8:1 9:0 10:0 11:0 12:1 13:0 #
0.20591444367437031215395393246581 1:0 2:1 3:0 4:0 5:1 6:1 7:1 8:1 9:0 10:0 11:0 12:0 13:0 #
0.00090140418431886026873200989939505 1:0 2:0 3:0 4:0 5:1 6:1 7:1 8:1 9:1 10:1 11:1 12:1 13:0 #
-0.20591444367437031215395393246581 1:0 2:0 3:0 4:0 5:0 6:1 7:1 8:1 9:0 10:0 11:0 12:0 13:0 #
-0.20591444367437031215395393246581 1:0 2:0 3:0 4:0 5:1 6:1 7:1 8:1 9:0 10:0 11:0 12:0 13:0 #
0.20591444367437031215395393246581 1:1 2:0 3:0 4:0 5:1 6:0 7:1 8:1 9:0 10:0 11:0 12:1 13:0 #
0.20591444367437031215395393246581 1:1 2:0 3:0 4:0 5:1 6:0 7:1 8:1 9:0 10:0 11:1 12:1 13:0 #
-0.20591444367437031215395393246581 1:0 2:0 3:0 4:0 5:1 6:0 7:1 8:1 9:0 10:0 11:1 12:1 13:0 #
-0.20591444367437031215395393246581 1:0 2:0 3:0 4:0 5:0 6:0 7:1 8:1 9:0 10:0 11:1 12:1 13:0 #
-0.20591444367437031215395393246581 1:0 2:0 3:0 4:0 5:1 6:1 7:1 8:1 9:0 10:0 11:0 12:1 13:0 #
0.18997356753721827971048696781509 1:0 2:0 3:1 4:0 5:1 6:1 7:1 8:1 9:0 10:1 11:0 12:0 13:0 #
0.20591444367437031215395393246581 1:0 2:1 3:0 4:0 5:1 6:1 7:1 8:1 9:0 10:0 11:0 12:0 13:0 #
0.20591444367437031215395393246581 1:1 2:0 3:0 4:0 5:0 6:0 7:1 8:1 9:0 10:0 11:0 12:0 13:0 #
-0.20591444367437031215395393246581 1:0 2:0 3:0 4:0 5:0 6:0 7:1 8:1 9:0 10:0 11:0 12:1 13:0 #
-0.060167929830508892763418771210127 1:0 2:0 3:0 4:0 5:1 6:1 7:1 8:1 9:0 10:0 11:0 12:0 13:0 #
0.20591444367437031215395393246581 1:1 2:0 3:0 4:0 5:1 6:1 7:1 8:1 9:0 10:0 11:0 12:0 13:0 #
-0.00087791084892985260523801116505638 1:0 2:0 3:0 4:0 5:0 6:0 7:0 8:0 9:0 10:0 11:0 12:0 13:1 #
-0.20591444367437031215395393246581 1:0 2:0 3:0 4:0 5:1 6:1 7:1 8:1 9:0 10:0 11:0 12:1 13:0 #
0.20591444367437031215395393246581 1:1 2:0 3:0 4:0 5:0 6:0 7:1 8:1 9:0 10:0 11:1 12:0 13:0 #
-0.081141512370180191027202454279177 1:0 2:0 3:0 4:0 5:0 6:0 7:1 8:1 9:0 10:0 11:1 12:0 13:0 #
0.18584171776084576488408117711515 1:1 2:0 3:0 4:0 5:0 6:0 7:1 8:1 9:0 10:0 11:0 12:1 13:0 #
-0.20591444367437031215395393246581 1:0 2:0 3:0 4:0 5:0 6:0 7:1 8:1 9:0 10:0 11:0 12:1 13:0 #
0.010330991305258996337812504862086 1:1 2:0 3:0 4:0 5:0 6:0 7:1 8:1 9:0 10:0 11:0 12:1 13:0 #
0.20591444367437031215395393246581 1:0 2:0 3:0 4:0 5:1 6:1 7:1 8:1 9:0 10:1 11:1 12:0 13:0 #
0.20591444367437031215395393246581 1:0 2:0 3:0 4:0 5:1 6:1 7:1 8:1 9:0 10:1 11:0 12:1 13:0 #
-0.1950125912626524682380591002584 1:0 2:0 3:0 4:0 5:1 6:1 7:1 8:1 9:0 10:0 11:0 12:0 13:0 #
0.20579745434431262474106461013434 1:0 2:0 3:0 4:1 5:1 6:0 7:1 8:1 9:0 10:1 11:0 12:1 13:0 #
-0.20591444367437031215395393246581 1:0 2:0 3:0 4:0 5:1 6:0 7:1 8:1 9:0 10:0 11:0 12:1 13:0 #
0.20591444367437031215395393246581 1:0 2:0 3:0 4:0 5:1 6:1 7:1 8:1 9:0 10:1 11:1 12:0 13:0 #
-0.09892654843319159674308593821479 1:0 2:0 3:0 4:0 5:0 6:1 7:1 8:1 9:0 10:0 11:0 12:0 13:0 #
0.20591444367437031215395393246581 1:1 2:0 3:0 4:0 5:0 6:0 7:1 8:1 9:0 10:0 11:0 12:1 13:0 #
-0.13644506519098686947444321049261 1:0 2:0 3:0 4:0 5:1 6:0 7:1 8:1 9:0 10:0 11:0 12:1 13:0 #
0.14375399751235562462170491926372 1:0 2:0 3:0 4:0 5:0 6:0 7:1 8:1 9:0 10:1 11:0 12:0 13:0 #
-0.088428832135468427022573223439394 1:0 2:0 3:0 4:0 5:1 6:1 7:1 8:1 9:0 10:0 11:0 12:0 13:0 #
0.10994981195494457626438133956981 1:1 2:0 3:0 4:0 5:1 6:0 7:1 8:1 9:0 10:0 11:0 12:1 13:0 #
-0.15304735504091337983112453002832 1:0 2:0 3:0 4:0 5:0 6:0 7:1 8:1 9:0 10:0 11:0 12:1 13:0 #
0.022220567775467436888447991805151 1:0 2:0 3:1 4:0 5:1 6:1 7:1 8:1 9:0 10:1 11:1 12:1 13:0 #
0.20591444367437031215395393246581 1:0 2:0 3:0 4:0 5:1 6:1 7:1 8:1 9:0 10:1 11:0 12:1 13:0 #
-0.054867383500715072308651087951148 1:0 2:0 3:0 4:0 5:1 6:0 7:1 8:1 9:0 10:0 11:0 12:0 13:0 #
-0.044828167227434975727895505315246 1:0 2:0 3:0 4:0 5:1 6:0 7:1 8:1 9:0 10:0 11:0 12:1 13:0 #
0.00084614147924382682175448167072318 1:0 2:0 3:0 4:1 5:1 6:1 7:0 8:0 9:0 10:1 11:1 12:1 13:0 #
-0.00026920277171482709377414721529931 1:0 2:0 3:0 4:0 5:1 6:1 7:1 8:1 9:0 10:0 11:0 12:1 13:0 #
2.7216168839050425276582245714962e-05 1:0 2:0 3:0 4:0 5:0 6:0 7:0 8:0 9:0 10:1 11:0 12:0 13:0 #
